encog,BasicNetwork,java,3.3.0,1,1445223079976
[BASIC]
[BASIC:PARAMS]
[BASIC:NETWORK]
beginTraining=0
connectionLimit=0
contextTargetOffset=0,0,0,0
contextTargetSize=0,0,0,0
endTraining=3
hasContext=f
inputCount=9
layerCounts=9,10,28,10
layerFeedCounts=9,9,27,9
layerContextCount=0,0,0,0
layerIndex=0,9,19,47
output=0.0004458794,0.0000563833,0.0000003405,0.0007746532,0.9955787849,0.0000006785,0.0007089373,0.0000000464,0.6733414096,0.026663897,0.031003555,0.0476592676,0.9061823149,0.0033064712,0.0000003968,0.9806415619,0.0430593017,0.9986482583,1,0.0000000042,0.1001970977,0.0021335318,0.9999999878,0,0.9999637208,0.9999505907,0.999656783,0.6045688882,0.476660158,0.9756687842,0,0.0006307416,0,0.0000000122,1,0.0000014433,0.9998065973,0.0000612684,0.9999997291,0.0000000012,0.2884459551,0,0,0.3095204621,0.0000000935,0.999999848,1,1,0,-1,0,0,-1,0,0,0,1
outputCount=9
weightIndex=0,90,342,612
weights=1.8287615938,-7.7220177273,-2.0383789608,1.8699320667,-1.5931443385,9.6477543447,1.1786686854,-9.4771254475,-3.6753858034,-6.2898588863,6.2284771834,1.7156119555,-4.3748298132,-2.5083271406,4.4900668014,-1.4134675822,-6.5156289934,-7.0734425353,3.4975445606,-4.162887966,-4.6332972386,7.696318493,4.6849591194,-2.626325052,-8.2413289032,4.1146624284,-6.815684457,-2.2373699775,-1.6867517041,-4.277664919,2.5605750891,-3.1537956776,4.1834314872,6.0203145036,1.4655475579,-1.3783249599,-1.9144084945,4.0369441638,-2.1824826975,-8.9427162561,-4.1978358105,5.1281820308,-6.9558087181,6.6455387493,-4.8489488959,-5.7286756736,5.8409249615,-5.0294505718,0.4380718481,-6.2148792311,-0.3837019363,3.6300784842,-3.6907386678,-2.2255643708,5.6296559862,2.8025425429,5.3194005098,2.8149488997,-4.0830232458,-13.2948173167,-3.1256367795,-3.1912401479,7.2107060977,-7.2293201348,0.741621866,-5.9828020055,4.4901528839,-1.811636826,-0.0770622069,-4.9805999771,5.589762108,1.0382880628,-6.2512044285,-6.9843986772,-4.8472873665,-2.8123702806,0.6715379026,2.0688058631,-7.4605882516,-3.8336118189,-5.6896373731,-5.7214398987,-4.4764594521,-2.8376627474,-2.6287471314,0.4547839894,-0.7957096468,4.8281430562,5.0599442619,-0.6476685236,4.8179220708,-17.3819139767,-2.1830667096,5.1463513606,7.1949048375,-0.2352333323,2.6989946121,6.8881561325,-5.0944959936,-4.9119774777,-0.6099359208,-5.2427534227,7.2135431509,5.7171656562,-2.7780936679,1.4791148918,-8.2879733532,-4.2308539479,0.1472260829,-7.4667678811,5.9167452856,4.2050713205,-2.8014947495,2.793615976,5.1808901833,0.4677103913,-2.7640116139,0.4867262331,-1.7785762569,0.1767687407,8.7070645481,4.2969742024,-2.7441240722,-4.624995877,-9.3437000718,1.6026928191,-1.3928342941,-6.5214899224,-4.8313473912,0.9457740821,-0.8891752736,-0.3246697335,2.1041870485,2.982291252,3.9378621229,-5.572152327,2.975814016,11.4051924963,3.0759264235,9.5938849416,11.1679955969,-19.1038792847,-1.2126551688,-8.3210273687,7.9231085961,-5.2807291815,7.9680966841,7.5433158109,-10.6196157752,-9.228793719,-5.0192386748,5.527072215,4.6328073131,1.8453040048,-20.2509286286,3.5598998408,6.9276095836,2.2015105608,-0.5703380222,12.7475275459,-19.5078849922,-5.5509518278,-8.0297402107,3.7955473154,1.8679827161,1.9602612378,-6.065418204,-21.8713321689,7.7508939917,10.9421315677,-6.7741330365,3.0510390337,8.9075585642,-2.6574069214,-0.4994172596,8.2370603624,-2.5063761879,-4.7102476552,-7.6876701026,2.2616871932,11.7877053283,1.5534816192,-10.1314343954,0.5185466086,-14.2980653592,-23.4296176828,2.9302095063,-1.5761899901,6.200856841,7.9700559529,-1.1808769984,11.6564331442,-1.3343991563,-6.6743821304,6.8161679452,5.6099198597,4.3220691177,-8.5701866788,-14.5987098936,1.6024397127,-5.4715857482,5.1751839547,7.2852662072,-0.7067756697,12.0916291743,5.4061425033,1.2071769901,-2.099958993,-5.0593496613,0.7720785983,-5.2657108426,6.9837083631,3.6388153947,0.44383272,2.6085179135,-0.7802871081,-7.2256469157,7.4642309649,0.801831604,1.583704694,-6.9760532758,5.2555882834,-5.9184864947,-4.3671796202,1.6267386035,4.5739008086,-3.3734904561,-8.3027216372,-15.3608891313,-4.4237618381,-6.4292187628,7.262467638,11.8528312254,1.3308096164,2.406105283,-2.7797143653,-1.2030112789,-14.2495459771,6.1181058339,7.0526573118,-7.1619584678,0.5560129563,-8.579754048,0.8898296415,7.5819704854,9.4127402641,-6.591882757,0.363529172,-0.0355965211,-12.6101999201,-6.7354807998,-7.0046950887,-4.0909521132,6.9432369064,-6.0125051302,-8.0571135032,9.8719403272,-2.6408775598,1.4620698428,6.5842842946,2.0443036814,-1.3547531375,-3.6201714488,-4.271815458,1.8726690077,8.329506203,4.4766418857,-4.8707182859,1.3754400415,2.2718268905,-0.0549330697,-5.0354093681,-2.7265895685,2.2285017542,-0.9176812346,8.3850377118,0.9038904967,-7.8171191377,-3.2490453989,3.0955731239,4.1542641128,-2.3333392671,2.6703374128,-0.6998715535,-9.6106803164,2.7508653352,-2.0686179968,8.175145284,3.9138346153,-1.5893513116,8.9019782509,6.9403741419,-3.2927828596,0.435850783,-4.2601542692,1.1711199976,-5.498707084,-5.6093369894,0.1351398639,-10.8904792849,0.5114652591,1.0048069661,-1.7351004829,-2.7235610443,3.2481049353,13.2764046757,1.4905108415,3.6040171244,2.8869892572,7.096453021,3.215110162,3.6220877257,-1.54618335,-11.1244301214,-3.3192353859,-1.1891632368,-7.5174556446,-1.278496333,5.3493407451,1.4040549964,7.683492444,-1.7418955607,3.6940280863,3.6898751495,2.9259014594,1.7668376913,0.6395289133,3.0928955667,3.7077689939,-8.150916268,9.1335551173,1.4123065758,-10.2388591523,0.0088563787,4.2006705752,3.1560003625,-7.4536751927,-1.9828646881,-10.4814027296,1.5876151335,-1.9900819096,4.6327930529,-14.0809231959,8.001746964,-10.1725960017,-9.3309438453,10.4400250683,11.4660860414,-7.2467161619,8.2095419447,-3.9628464129,-3.6802529707,-3.3036650411,5.5864574917,-4.0501992665,-3.9614694667,-2.1339173474,-3.4221763459,-3.7211332921,-3.9411159921,-2.3222678205,-6.3268908229,-0.8397110639,1.0512144061,-0.2971484143,-1.0212407309,1.8211349287,12.2249023938,1.1203177816,2.7570767646,-0.6640558804,6.8543620598,4.8035923374,5.2883987311,-3.8745794805,4.5200387112,-6.0066967718,-10.9678154305,10.3347229008,-0.3978516562,17.4953271512,-1.4794227227,0.5439510414,-11.1523640827,0.4982516957,-0.2602686698,-14.9506521193,9.1274804587,6.9504504783,-3.1975491772,-6.0892264382,-17.3122758864,-9.2265971078,-9.8566287423,-10.9173236734,1.3923645389,-3.370857318,-9.8012331297,-2.2775031408,-3.6240798686,1.5965885588,-1.5542172248,15.3232597504,-9.3928558631,3.3714163839,-2.5318390686,0.0161954491,13.2827043585,0.1425227134,-4.084945686,-8.4201052652,11.0301928681,8.3333954922,6.5356237494,-30.4672791326,2.467830982,-24.4928815606,9.071245703,6.7864207679,13.0869749902,-4.7014662615,-20.7087456548,7.3352444471,-3.0670211616,-2.9647354448,-13.354591307,5.6811086199,0.409023206,-0.0523329287,1.083136566,2.3684840636,-10.0400777024,0.6640235579,3.082422963,-4.1875798618,1.0223298667,-10.4913184872,1.9389445563,2.2924342669,8.2570974279,-4.419439425,-3.3339395228,0.6334937899,3.9893512129,0.9565075066,-0.3700273747,-0.4596824004,-0.3750459298,7.9235225154,1.8413455745,-2.7091062135,3.9224757807,-3.1004171547,-22.5807333775,-1.8152158261,29.6556289031,-2.146210927,2.2409307325,-6.1943017278,-4.4946758705,10.472675266,-23.8526872042,-4.5052124335,20.2771369664,-9.0710333546,1.0956365258,-2.5257326531,-5.0565661173,2.8713446847,11.8831922252,4.7716291435,-16.8728496204,18.5750428202,13.9804808181,15.2662486957,0.3371647695,-3.3423211738,17.9729926129,-2.9385559349,-2.6771342713,-7.6419982457,-23.4659142179,-9.8511853198,-6.3721039938,-3.7511569385,4.4038004298,-7.4810536436,1.8790909161,9.1479143788,-0.4700450448,-13.9873734449,-11.525003194,9.1869587431,8.5714421681,-1.4859722395,7.011979448,-1.6446974264,-34.6550439699,16.0404619106,12.9383448473,-7.4008344683,6.8601021239,-12.8155820455,1.5379679993,-3.4711878229,-3.167901076,1.3477847662,-6.8623374263,6.0438185001,5.1650856208,-7.5336821864,-11.0894832898,7.8141054413,-11.0506112523,-9.120748583,0.1174269634,1.4359876613,0.9637032725,5.9296228028,-5.7655534191,7.1659782292,-8.0982593781,-0.0708686905,-10.9023723659,9.0730885073,-16.4385676323,-7.1491552251,-2.2118662244,1.7236739277,16.8207372175,13.7498179332,-2.6445367811,11.8278476363,-6.3219322719,-6.4659250545,-9.4681968656,-7.0551822688,-8.3657353527,-2.7796630676,-6.7321256805,-6.5047826502,-11.1069436302,0.3811506447,-12.6304882341,1.2927994686,3.8720694204,-1.4949448168,9.8191888082,0.4356479392,-17.0611417044,1.4915391417,-9.9253807174,-3.8635529322,-0.5072983697,-8.698784833,0.4365195584,5.3984623702,-6.1592829459,-14.110988488,2.4077615635,-8.4999241023,-11.8828017777,-13.9198841471,-18.5662180541,15.2947197763,-7.9276467052,-2.1170780935,8.9116486215,19.3841276166,12.2324592639,-14.1924995921,-14.2342426414,2.5918166097,-0.046779277,0.6056339332,-0.8846255344,30.4864245085,-0.2731041139,-18.2413105954,0.0614187402,-7.5309599757,-26.4090779487,6.7051521492,-3.9398223365,-3.427257758,11.4834674263,-12.5480332081,4.692203839,-1.074960998,-17.2522033126,-19.6925182617,-6.0904747959,-9.9256463179,4.1877292028,1.2276051577,-2.2429623464,-5.7950045212,-3.4708464179,-5.0417888201,0.8878559581,-4.2723769111,-8.2686242348,2.314837519,0.6653092834,-8.3992882213,1.6230550729,2.8341944914,0.9301108987,1.9661516482,0.4822844786,2.8830400468,6.3485242934
biasActivation=0,1,1,1
[BASIC:ACTIVATION]
"org.encog.engine.network.activation.ActivationSigmoid"
"org.encog.engine.network.activation.ActivationSigmoid"
"org.encog.engine.network.activation.ActivationSigmoid"
"org.encog.engine.network.activation.ActivationLinear"
