encog,BasicNetwork,java,3.3.0,1,1445298026338
[BASIC]
[BASIC:PARAMS]
[BASIC:NETWORK]
beginTraining=0
connectionLimit=0
contextTargetOffset=0,0,0,0
contextTargetSize=0,0,0,0
endTraining=3
hasContext=f
inputCount=18
layerCounts=9,37,28,19
layerFeedCounts=9,36,27,18
layerContextCount=0,0,0,0
layerIndex=0,9,46,74
output=0,0,0,0,0,0,0,0,0,0,0,0,0,0,0,0,0,0,0,0,0,0,0,0,0,0,0,0,0,0,0,0,0,0,0,0,0,0,0,0,0,0,0,0,0,1,0,0,0,0,0,0,0,0,0,0,0,0,0,0,0,0,0,0,0,0,0,0,0,0,0,0,0,1,0,0,0,0,0,0,0,0,0,0,0,0,0,0,0,0,0,0,1
outputCount=9
weightIndex=0,333,1341,1854
weights=0.0510453774,-0.451196802,-0.605708129,-0.1779438691,0.7802488198,-2.5332569619,0.5608054123,0.6711381196,-2.9679924473,-2.9133533318,2.0547464377,-0.8084180302,-2.0663404055,0.0354362292,-0.6373902807,1.0262661618,-2.3819805648,-1.157436058,2.427307235,-2.189771875,0.1355300605,-1.6670956733,-0.8886733284,-1.1964680406,0.8547785437,-0.3501759911,-2.6627874285,-0.6770577402,1.4469974374,-1.3824471318,-2.1515709166,3.3375169023,0.7465416696,0.0843013664,1.2126983553,-2.6874251421,-3.2379158594,-1.6692744046,-0.4799340614,1.3403077864,0.7404365195,-1.2115346606,-1.9765662237,-1.1567325288,-1.3372482561,-1.984320191,0.654112169,-1.681699372,1.4545090969,0.9839867007,1.5194082401,3.0418481823,0.4939619609,-2.8589143893,-1.9295153294,-0.7592548013,-0.8886877144,-0.7360866103,0.5186446819,-2.1576827184,0.4653854224,0.3530511811,-1.0358591437,-1.4634128332,3.1556984318,-0.1091022084,-1.8117881915,2.2135882653,-0.6820133826,-0.0206070234,0.1111061836,1.068378593,-0.2996886451,-2.7658762315,0.0075670936,1.5769211425,-1.8782454242,-0.9397468499,2.4779271286,0.21267416,-1.1814791134,-0.8924919941,0.5943382937,-3.1472622297,-0.0458145067,-1.3681356997,0.8891616644,1.7987807026,0.1177345543,-0.7825809417,-2.9091119007,-0.5877511161,-0.8910501588,1.3565984378,0.0536460093,0.8671436297,1.9600118748,0.2460847846,-2.6334545406,0.4598070765,-2.1303647901,1.1320697511,2.4341374448,-1.7051054843,-0.2304982561,-1.941787985,-3.4305105378,0.3325142291,-0.0283459965,-0.9636639097,-2.3955515866,0.7840458129,-3.3908572608,1.1500666312,1.4875815035,1.1257728637,-1.8585319279,-2.8116657639,-0.7006148332,-1.314845236,-1.5929690971,-2.6618299938,-1.372745094,-3.162238543,0.1960348719,-2.3890121867,-2.269365332,-2.2801428697,0.426719199,-0.334847357,-2.847914837,-0.8280296414,-1.1603736796,-1.694278445,-1.1432178423,-1.5537515105,-2.0554227125,-1.7785999192,-0.6824071818,-2.7798366877,-2.3162334713,-1.448107037,-1.470794744,-1.9584125975,-2.1456886323,0.153267188,-1.0629310217,-3.2364292122,-3.5244993757,-0.5637174617,1.3616220177,-2.6027887136,-1.8670394419,-0.4951637375,0.5424505122,0.3204083758,0.1454571042,0.9762188547,-1.1950528273,0.2214553811,-1.7460610942,-0.0002754989,-0.8537344892,-0.7511013857,4.0471812501,0.8973275792,-1.2677945618,1.4047289837,1.8122521639,-0.5467401851,0.3222982783,0.1047152996,-0.4999377391,0.9050274173,1.7703560581,-0.4120360179,-1.9399766498,1.2166381182,-0.8612115981,1.3196875159,-1.166630195,1.5104282189,0.163373138,3.0760638927,0.190775192,0.9587353387,-0.5150116282,0.849124646,1.5982181266,-0.8309496366,0.7627316985,-1.2044786157,-3.9647518029,0.673346752,-1.9310042641,2.2359688363,-1.5009138108,0.935902123,-2.2767768605,-1.8661574738,1.389949459,-0.0561755153,1.172524212,-0.5847873945,-2.0704700492,-0.8098864667,-0.6457810546,-3.0175207942,-0.7676663873,0.5693449883,1.6342111921,-1.4656964344,-1.2960033491,0.6664622863,2.0590856454,-1.0848498973,-0.1786286616,0.4514672621,-0.499526035,-1.7437262623,0.0770138128,-3.8973287652,-3.2083783123,-0.3362482631,-3.9606875414,1.933038743,-1.2595978114,0.665829724,0.5503958964,-3.4067458626,-1.6413886226,-0.9574003169,0.9817052935,0.0882851429,1.0243965213,0.2064756169,-2.2505658171,-0.9349708242,-0.9564440735,-3.0948101182,1.0326837019,0.9244620624,-2.3897745795,-0.2835235432,-0.7280376917,2.7366423947,-3.161629705,0.0835816076,1.4473973539,-3.2120376267,-2.9372005544,-0.2095643694,-0.3846952875,2.0838822455,-2.4869015509,-0.3111274794,-1.9370578835,-0.681651334,-4.8739185253,1.5889493449,-0.6062786213,-0.6883303664,2.1881453172,-1.1750914856,0.5775632092,1.0799947613,2.1976066368,0.5464958183,-0.1639644086,-0.1418547836,-0.3620243402,-0.6653715742,-0.0810741831,0.4108589927,-0.0757784644,-0.8259488078,-0.784353738,-0.4502685884,-1.7242357304,-0.4329257563,0.6429054457,-2.0824116267,-0.263214558,0.9856767819,0.7235293469,4.3891333874,1.0051459936,-1.7023089836,1.2007204817,-1.0752119091,0.7785035273,-0.2251733396,-6.120530303,0.5202948628,-0.2127944627,-4.4045928656,-0.190602148,-2.3182184779,0.7006968536,1.053813252,-0.8146389074,-0.4947299565,-0.5544675977,-0.3231758703,0.8039753468,-2.0203669773,-1.6160360821,-1.8927990106,-0.4924825132,-2.2742749361,-1.0355140157,0.0548631613,-1.8727052355,-0.2700846786,-1.0965307267,1.4880258109,1.0447521956,-0.863770467,-2.5175024527,-1.10351777,3.2937583382,-1.0329826766,-0.6689628565,-1.0081297852,0.2568201107,-1.288721909,-1.6668954624,0.5113518902,1.4143712261,-0.8317830015,-0.8365843364,-0.8635161413,-1.6246804507,-19.2104492661,-22.8559397952,18.1272908491,-77.3204860816,20.5278810858,-40.9520965345,8.2356537282,-89.099693311,52.3749167096,55.1850742876,-20.2150648691,-13.6512713184,-16.8975037602,-16.9810943786,-32.5605496983,24.2590918186,-21.1111163161,-10.8803800917,-13.2501584531,-4.0164814071,-22.6086755266,-21.3789773062,-21.0433474131,-20.1455095664,-5.9338073416,-88.3110689959,52.5770367611,-20.3251960242,-25.0168763565,-28.4689253735,-11.7887159254,-110.0002420685,23.5924537265,-22.1471444312,-58.9517639286,36.6753212128,-75.7778761317,-30.8808852232,-33.0637702423,-6.9048573155,-20.9123132273,-11.5405757689,-10.1018918467,-93.6562372724,-17.890000977,-43.0606695394,-11.9934132679,-63.1287857868,-5.0378562129,-86.3254847036,-18.7175850661,-5.6940928651,-172.3740512914,29.7952779566,41.8686114779,-2.9637595814,22.5819475755,-15.9439102446,35.2813058936,-46.2763264277,44.5099400446,-2.8620945651,30.4770509441,-108.2479603984,6.5104229844,4.4628208536,-43.8636716747,-24.4701812667,1.8955011951,-15.0635762667,-17.2252201424,87.9126178996,-32.7174753998,5.0441746858,-21.1897569358,-3.2284135607,-14.4231590307,-13.8025532219,-21.2975428166,-15.5375656472,29.1199887662,-82.8424407682,47.1089973621,-26.9418494525,39.1002681705,6.4386991132,57.4144389228,-0.5311488469,-8.8142288398,35.89528342,43.9618583762,-5.2046211891,121.7617681475,-2.6277505599,-23.0289552425,-21.4844600575,18.133552878,-15.7595351202,-19.3558384375,22.2666880729,-5.8235441782,-16.3633733351,-10.6139300834,10.4764230788,-23.9020117137,-8.5527872215,12.6793774632,-25.5447979864,2.9607402277,-29.9974927458,-6.4449896751,-22.4477741113,-19.7719797394,-7.7919583002,10.0105790476,-61.0767540095,20.4910702291,6.3781138081,8.2556378615,-17.5233708599,33.8071589583,73.3250733062,18.1671134396,5.2785404752,-15.1778674441,4.51938,-10.0021179006,24.1323567085,3.4514007229,-19.4644630416,-3.4861428139,32.2746501179,-6.6010727373,7.9509679607,9.7300160008,5.1312265326,-3.1588057451,0.1570211209,-22.0134982516,-5.9280312999,-30.9210297206,-10.4445594917,-54.9208604763,-78.8294813966,-53.5222794528,-36.4090843169,-85.9056191146,69.8913361686,34.7383245556,31.259167165,-26.2949044357,-0.6730023564,-11.9710606736,3.2426601926,-8.6739395209,-90.9725759435,7.5467385352,-33.5823694425,-6.7509620145,6.1951388338,4.6691159355,-70.9059483497,4.7398451196,-3.0294610537,-61.377635386,32.0536344284,-10.5919791829,-6.0351003736,5.4021920934,-21.5006420787,65.3217600399,-75.1591713675,28.0471295823,23.165685303,27.61899164,17.968155843,-19.7364842144,-27.2218525378,-25.0854034935,-5.3123883963,2.135875392,-24.2058208356,-7.0481471578,-36.7339808038,-1.7779705817,-26.1610050672,4.3338737461,-53.7556263608,-15.9140971098,-39.8728742293,-6.5916991578,-5.4485442217,-89.6538822037,3.4619256196,-60.4028097399,-11.8825371182,-27.135574242,-33.7491689488,10.8211188175,-11.45240852,30.3939738595,-25.8869920068,-3.2996275647,-100.6021858593,-1.356884308,35.0870074973,-14.3277815113,-23.4011445039,-27.5856853553,-21.7526099169,-43.3336241502,80.0308976709,-6.3133337486,33.5683605844,-4.5221332357,-5.0281822992,-24.0115871248,18.2776592137,-6.2634931123,-13.9155374576,62.0957564184,-91.3243798744,31.2901007272,-24.792452558,-1.6828069876,11.6033754679,-2.8348358385,-64.1083648787,-57.360699377,-46.5498615818,-42.8269196434,-2.4725819432,32.9905449504,22.8887821123,7.4853223509,-3.9871886282,7.5030852179,-10.1341985499,-3.2427180851,-52.4230356733,0.4642086218,3.9182952465,-8.8051983715,-15.5379538845,1.0644910647,-18.9631710156,-9.3340425514,-4.514276253,-21.4871005027,-25.0958560411,8.3070487233,-11.4179174518,-31.9062764868,-33.6414540055,-79.7419157898,15.0943269788,-18.1571757128,-45.0664927485,-43.3837796254,-1.4466041273,-49.0083409527,-12.0266137164,-76.1433812019,-6.4378424182,-18.5991135023,-13.2353683556,-22.6336983132,-33.8970498574,-10.2209468146,2.1725626673,-3.86902458,36.0168275283,7.5297607035,-40.451171472,-10.8516774735,-6.6424796702,15.3663197354,-14.6563631236,-14.6426506906,-7.0583039812,-13.9380803236,-32.8913230669,7.6241582489,-62.3783729539,20.4008723885,30.063535074,-21.6832392569,51.3726320021,-3.8112299071,21.3235773845,-50.1030224814,1.0078157699,-15.1203300309,-6.6437639357,-17.7984116974,-56.776395982,-2.0498009236,-61.935105777,-10.2028708878,-29.645540132,-11.4990385088,-72.8740734751,-5.2199947318,-1.4322426671,-111.838132764,36.754254166,-17.608697604,-11.4714055301,-41.9234087707,-35.6506678148,-78.1315428778,14.1978013135,2.9027034891,-18.785971874,-29.3308886512,1.575773546,-50.8928047842,-4.9439159004,-66.5716353257,-4.7105457638,-28.3401386459,-11.6041426575,-18.4816763733,-2.4613772636,-8.648979038,-12.7976195266,-6.3125748089,39.6512051958,6.428050483,-33.6397485411,-10.0878859814,-3.2900640552,31.5236052456,-5.0916741324,-34.8130024403,-4.8145668564,-26.7884411806,-13.2267779268,-27.9353542396,-90.5618191351,-35.6734936528,-12.8193653042,-60.2867987547,69.8319487195,9.9642882311,20.180441723,-33.0471360093,0.5381623337,-11.6715731282,-3.6884737186,-9.3405659156,-81.0229104482,-5.550866631,-54.7976125398,-14.4783686828,3.892656867,4.936424121,-69.5061015157,-8.9288301292,-3.7615039059,-56.5074306957,35.7000716544,-30.1351618606,-8.953404739,1.2880040556,-4.8566464394,-55.5544155655,-21.8611319523,-34.905844407,-37.5507454261,18.8304416963,-26.2463314897,4.1048041472,5.3148438294,-18.2785494116,1.800791504,11.593545098,-10.7498346594,-8.9300527191,-19.498704767,-10.2457011457,4.3235328173,0.057667019,50.9049826601,-3.7053771924,-5.943279202,-14.3438843951,0.3268703964,0.7715109489,-31.1552427458,20.6108241498,-11.2331292849,-13.3324686989,-40.5221022059,-60.245455027,-4.4715615954,67.2859007255,45.186437105,-42.9855109512,42.8684516229,23.8738084902,-10.7936390522,-108.3589876691,-7.1582218397,-15.4879480587,4.7267812693,-11.6817493162,-12.3067533975,-4.0425285267,-56.4963844432,-12.2395617952,7.5747833576,-2.8335232671,-80.295871606,7.9881846047,-4.6306479405,-3.9553962315,-2.1684373813,-9.0415532583,-7.2241291315,26.3837556815,2.1300661965,61.3685383891,-99.0447706375,51.0736790044,60.7726142303,16.5755754692,34.2137048817,19.9240983779,-29.2805349997,-36.059447398,-21.6670164679,11.1324153676,-6.1454527379,3.155968209,12.4340797884,-21.5399667865,-37.2912625726,-18.1130663861,-61.6596110637,-26.9483806431,-72.0928712761,-12.0184894546,-18.4465135552,-118.1931747856,8.8241275287,-1.9807527764,-18.0507350847,-18.0593943869,-24.552445477,-8.5790060416,6.6397157269,33.7676377685,18.909999171,-0.0236380854,-4.7710947112,-81.4071962484,-54.0468873801,-56.0540667349,-17.9716863855,-10.3075724995,-15.7098013587,-16.4352010425,6.7261329561,-17.5010233793,12.1181688131,-8.5975204666,-28.6854361276,-11.5816960898,-3.5448705751,-13.169765054,-9.90483683,24.070769128,-32.1404268564,-1.5220810728,-9.0382484791,-19.1576076844,-21.5830614035,0.8494137798,-55.982743443,8.5212376983,-64.0533018063,-31.9943158967,-92.6171609694,-25.1045268853,52.2829526019,-18.7337190855,-4.2184126081,-24.0572020194,-14.4541330289,-34.9477141449,9.2322071677,-18.4911543077,-10.4980777275,-12.3391366056,14.8224025323,-1.0913370911,-16.0083531231,-16.4731748735,-0.7674806056,-37.6417091788,-48.0371717263,66.1507958464,-9.5385597939,-7.1064654271,-2.4164242309,73.1180719854,-6.0991097657,37.6981467368,18.8914898254,66.5368164401,-26.9628457975,-76.5295281259,-28.8889079655,35.7160979466,-1.1590571185,-22.629269748,-12.3381675235,6.7605607818,59.5890961843,-9.0302493883,18.7914877349,3.7954590267,-29.4377868791,-14.5573457848,28.6868046468,-15.3663703058,-7.9965980116,-18.9681260516,8.2839017756,-65.0721799912,-10.1795366888,-17.4899744586,-30.5627443772,-9.3585429805,-17.2474139626,2.9787508065,-16.1301664882,-80.0788032509,0.816128762,-15.1467454409,8.9050304212,-55.9423829187,-3.0244890706,-20.2874017063,-19.2746053211,-26.8435157366,-17.9688764223,13.4816507115,-14.0176530317,-0.4564302069,-5.4727278226,10.7552329988,-37.6171651403,9.3187904761,7.369829288,-20.1143307011,-3.8920738269,-13.2617658686,-2.5114686228,-9.1779540968,-22.8640248159,13.1309951854,-25.7968827528,51.3116380981,-16.0165231078,-10.033163788,-37.1094983756,-24.6655671913,-13.8092861178,-41.0175931344,-4.3036177264,-13.6779523816,-10.726090578,-14.3245186077,-7.8750631066,-12.1214554553,-22.3531700462,-2.8894522408,-32.0472997371,-9.9043970462,-41.9022574732,-15.1037374769,-4.7681743748,-52.5360699058,-38.2945720461,38.6286149215,-9.127397456,-27.3017106939,-36.5772282641,-56.1255941421,-12.2411659433,-14.2469654111,-28.4133597387,-51.3901813676,16.3623249323,-25.0066484138,4.4906756488,-68.7206213679,-1.1415269632,-18.2540854341,-10.8132835193,-19.9726087358,-42.5418672841,-3.0922292084,-27.9520188905,-5.7536030558,22.9558475659,9.6637369456,-58.1845254389,-2.6982233441,0.5934029363,-30.8595984728,11.4240267111,-20.2742617873,-5.2966788191,-45.0832174026,-28.8481965616,-85.8990069574,-7.0388541032,-1.0672648916,-19.3020881464,-50.9278047453,17.5365972777,-55.7679533842,31.6185681925,-30.4372038678,4.9375571433,-29.1976884637,-1.1800135533,-11.3854573577,-22.3249734294,-2.0560753844,-22.1657548706,-6.9099933482,50.95336145,8.0154985045,-19.6922558158,-5.7059718946,8.182836451,13.9202983991,24.5590593913,-40.7039644915,-3.4217655685,-8.1142528048,-9.434229133,-20.2028838162,-11.0691131289,-32.0054455417,-1.0821259261,-5.8457155445,47.5072123725,-0.1270354665,-12.4749085551,-14.1181917523,3.7853329437,0.4815321268,-0.8736840028,6.4104774063,-29.3322613761,8.3057338417,-9.2517835253,0.2049933954,20.521258543,7.6670334928,-16.1838653608,5.088832234,5.1245169066,-8.8900084663,35.4876805563,-65.1996351885,-2.6130551009,-34.3601662026,-23.6760558779,-25.3255914432,-64.7729681686,28.459281685,-16.6689182485,-64.0738736331,20.9921749971,-71.6763954727,2.3564820442,-27.3840101065,-7.5320211936,-20.8092439387,2.6608403661,3.7540817427,-48.0492211552,-19.4031393803,-35.247849232,-14.0502420216,-71.8650301208,-10.2363815469,-57.5088665843,-29.1638834081,-4.0465344172,-87.02573504,-1.7192492859,36.6330609289,-6.7572499332,-2.9777546546,6.3052507588,56.3053764778,-49.2514825019,-13.3595076925,-22.2661728332,11.2900678914,-58.7204369654,-19.239975797,-10.1048872708,26.9264877074,-12.2238258581,3.1757775131,-11.7306846092,-20.6092833318,15.0737392226,-11.5263410411,13.2185052879,-3.8147695051,-26.5498196026,-8.2165623019,1.1815102657,-14.4489443737,-12.3679365991,-14.522502794,-37.1151035025,45.5423403377,-12.9765504431,-25.4647230819,-46.2075077027,-43.8531065899,-2.9270171774,7.1304571875,-37.4202986424,-66.4822365175,15.19755862,-0.3135720733,-33.7436349349,-104.0685917522,-11.9621994455,-20.2753644554,-19.0158137219,-44.2789804333,-35.5749079575,5.0168040944,-6.247625368,-0.1506275577,-28.7057168832,-7.9625348403,-82.5131657381,5.6808260285,-13.8566871877,-69.6169949181,-22.5420896186,40.7071774415,-3.3237216006,-51.4581560997,-56.994778324,-72.0806104497,-4.7329101391,58.5675718523,-54.623724123,-46.3844503317,-70.4834143611,-50.6995868445,37.9197635141,-91.844911022,-11.4228344814,-47.103970218,-7.4498198107,-42.9856703771,71.2934903282,-20.1946418262,-14.1400589552,-11.2099233567,42.4381091719,2.4307142187,-66.238904804,-19.5935471571,-6.4951739237,-13.1057607382,-40.5836134766,34.9811724119,-12.5854455895,-30.4648339396,-46.7535968774,24.4153999208,-114.4219621001,47.8487043923,-21.5786108147,-52.9923279115,-4.6485733278,-53.0226143259,33.745141926,-34.8650526119,-5.5576325833,-35.5146133923,-9.3610384131,-24.0726363642,-45.5756511084,-15.8989216654,-53.7993089213,-13.2622586564,-60.0080226099,-8.9276906416,-80.0980121637,-16.9581924559,1.9254028379,-128.2388678793,0.7386671474,25.230378884,-5.9364167003,-21.8149599287,-33.8995130618,-21.2358102785,-80.2297691136,-14.376186844,-34.4315022218,-76.5613751281,30.7503624973,-9.2501448201,-16.8699379241,-72.3063523774,-12.8449056434,-16.8084858114,-8.3107881932,-32.1455031252,-87.0994375056,-7.3101555196,-37.3873183189,-14.0906897017,-45.840291127,-4.8583594727,-103.7878757995,-5.3755707931,-12.0375229276,-127.3263263484,7.7346771403,41.519968896,-6.8339885613,-46.0041434637,-26.5774475394,-84.5131103247,-31.0597056665,-7.6659921619,-25.5902460074,-40.9474993791,25.0993250566,-32.402272501,14.9274714115,-58.7246755003,0.3310649916,-26.2958862007,-5.0793424102,-12.3247839773,-16.8874405703,-10.9786127035,-24.8902422964,-11.4461410916,40.2257039705,7.8162688467,-50.7927991347,-15.3621778291,-1.4983336937,0.5421538374,4.5139573694,-45.2277100993,-5.1752524151,-23.6416642884,-26.152773949,-31.5612124607,-37.0766149104,15.286114336,-7.8661693108,-41.6178663448,24.0772815995,-28.9984159616,-7.5948245649,-35.2995851756,-6.1299962809,-14.2105252486,-2.8616523952,-8.9183741015,-42.656404871,-0.6255106561,-14.9800731733,-2.2008163468,-50.331342439,-12.0461430661,-43.8121397249,-9.5518933055,-5.1189105791,-52.731529799,-6.2372203322,23.0561593783,-8.1489584542,-23.1587124835,-29.1982039183,19.6320084943,-88.2573041987,17.2071644543,-11.8252735823,-20.7098792796,-9.2979005996,-15.878116191,29.0668472961,-31.9789050742,-6.781510748,-25.2366342287,-7.1836477841,-13.9118441391,-15.6423961598,-12.3566977836,-32.1946692002,-14.2825020847,-50.3365627654,-10.7473753838,-51.9757711407,-15.1151843405,-3.6735759162,-83.4207096066,-10.0249718201,1.0533637469,-10.0747032455,-13.8099442181,-21.0934658989,-23.3167520672,-61.4239195515,23.1626963449,12.8890448953,-45.1905623992,43.6387999924,-29.925864553,11.3555221228,-24.5263566448,-0.1759484322,-12.9646081778,3.4391086505,4.2274156059,-73.372398268,-5.6378993572,-64.0390828483,-11.0806695514,-32.1807165195,-8.0848607191,-44.9755997067,-13.7524757771,9.5465982439,-92.8052398548,43.0755593195,3.7325717101,-10.870940138,1.3689259541,-14.8739338197,12.4358179469,-75.7908876065,12.652706435,-20.5450899259,13.2352735558,-46.8775465935,58.624384255,24.4275612275,-11.2753524914,0.5497358661,-9.0472836892,-7.5261126596,-9.1204521361,-11.2986332476,6.210595776,-10.0737081984,0.0972711277,-3.1352651745,-3.5271132364,-25.4247397686,6.9606010842,1.5592430504,-44.4737582636,-37.9003611819,-14.2989143396,-7.6649075852,-28.377681641,-3.2364911956,-45.7475414387,-48.0591266685,-21.6143183878,-32.4192843281,-37.9664587654,-11.7335786202,-67.0682186945,-4.1472533712,-21.3739811162,-3.6195985028,-12.4066828604,-7.3273925485,-6.2437418639,9.6933955979,-16.2536661425,1.7651343367,-8.0129625377,13.1286363675,7.7602146243,-25.5185737945,-24.5135025798,-1.7728131947,-6.1177764282,-3.3935000268,-7.1603192204,-2.594602746,110.4030904518,1563.7430562375,1772.4830633307,-463.2118051187,1966.414381145,-508.8997987532,-849.1149780769,369.5097044536,-0.7091978044,-363.1579340729,449.8163440846,1553.6889629934,442.122524538,868.4951244349,30.8201381137,-696.8488482925,1118.4309878276,-274.1299674864,-78.298984976,183.762840198,2113.3612883778,1274.2590343826,-1164.2455167881,1608.6092048791,-594.1142156962,-1003.3708135473,867.8774385121,-0.279455518,473.3865034024,540.7334256053,772.8168684355,-119.0335447793,618.2372598629,333.5196357069,-881.2683318451,1252.7491681345,-229.0092149994,-91.6553066791,-1918.2467994653,1864.6284220723,1387.3325086434,-9.1389318145,1632.8310175713,-777.3745279773,-23.1602679394,-123.1576379809,-0.6567774395,-2909.1807563302,1182.4130370651,1212.8973469796,981.2120628194,930.5141796681,-369.9485596032,115.1117879864,7.0230554736,-27.1387226326,-205.553283166,-322.7602248848,636.9130299439,3710.6914059907,-3865.0816402665,446.4705498309,2592.3958861709,-3435.3892905204,1108.0261826726,0.7602862187,3372.298384439,-976.8084780286,1280.0556185872,-3607.8837534989,-223.3911497046,1215.5651986407,-1218.5701955795,1507.9092767945,-776.4610445296,-60.5211719892,-1755.342586915,-1334.405403368,-257.8353337433,1253.8218106119,-78.3140646112,190.2300683579,1041.3016926165,-130.5428047445,-0.7400226563,-1737.262837692,-753.8803389756,530.0622673791,332.5969063154,-21.4814545103,-345.7979819352,527.6299863523,-19.0318263529,-301.2968047682,-78.9978705035,-913.7525209611,537.8719424469,1100.2895152186,-363.3276112874,1686.0020045085,365.221708639,-2015.9628234794,828.7442407397,-0.8090563528,-674.857101907,-573.2982039226,1443.0556012107,389.850693339,1101.1005361525,-488.1819053452,-2271.4424055211,1697.7092929888,46.3875888416,-102.8761711723,-1701.6693903122,1156.1649769826,2109.716186949,-1576.8343547829,977.8752593262,211.69110233,-1247.7283687558,487.4456667702,-0.8590086044,-913.7065122162,182.1797939292,906.5916433003,-640.3033283936,910.641103978,-342.6623357796,-696.7854850805,233.8307411257,103.4659600515,-255.4504528654,1872.6392719915,456.7040428303,-1140.2305028342,784.6911013944,1280.9593277491,-204.6281416245,-2728.5472225223,855.8090988994,-0.7592917878,976.3931748704,-291.1858466866,662.3183457018,1927.5554950295,204.4971906826,-270.7343193702,-4244.9440891626,2482.9804303525,715.5762809379,-51.2008709039,1285.1319031492,758.9922832551,516.6909451184,-1088.5877019714,4187.7835673018,87.5869774342,-808.429079477,-412.8833487506,-0.2060547283,467.5349004394,45.8602710221,351.3600755419,-799.0700849772,2724.0451153861,528.5356191251,471.4273565923,525.7834653582,-658.6454271358,-617.0126270407,-157.3346376355,207.4621333843,-1188.3346605744,-112.3910360821,322.0693953633,-112.2375863119,585.6695112544,196.8337392731,-0.4713667725,-8.1840960346,108.8971524522,-1332.2851727261,-653.3059313416,436.0104227487,424.9539377253,761.9567779373,-256.4990724175,-29.9652851809,-279.9183772562,-402.3548432336,3894.0594574403,1567.3603258459,-2040.3513465832,1681.2767819395,-885.4386514283,-1445.9435983173,1513.5283885561,-0.9693175634,212.4755817696,1260.3798647454,440.107405655,-772.7502469642,516.5166840694,931.1854485215,-739.0202293123,1352.218133432,-298.2472217428,-194.8419364983,177.5833885522,585.3024656279,45.2009975563,-265.4851495049,285.2865326929,133.0632284954,-491.9631968885,450.624899769,-0.9422075513,474.7310049216,168.8235149247,-45.6559892883,-115.2773110825,52.5451375101,337.3137878203,-444.4251893136,465.7499222468,34.5945910669,93.8993523416,620.5883868426,1475.8942476379,1431.3751265683,-643.8679876998,1499.5695055058,-307.2950740697,-1240.8714184428,397.7568835871,0.7041048825,296.0570932576,368.0910726502,1187.4016911232,438.8174721262,643.6566030336,-51.9530233899,-1177.0796703629,1141.9757074235,-69.2191886627,-12.8693348674,86.4750369346,773.5940666178,517.5353042135,-383.6025210767,648.1674246794,27.2636177303,-680.1619747847,605.7222386438,-0.4049478477,444.5529488859,33.1711391027,345.2492539999,-118.0399160559,230.894774324,247.870435523,-640.1700307796,861.979502009,-124.2308827669,17.2822088923,191.6279095854,1314.9961888843,672.7827448532,-577.4038292052,853.6582422422,-290.5240121734,-1036.9549492648,878.9600719032,-0.4297167194,523.0543266057,163.3705428825,490.4621319126,-6.544442796,245.8670063716,274.2996618129,-1117.4176488286,1201.0803237416,-60.8681348898,-48.6845564058,-3702.0349052842,-685.8998088664,2095.1278459892,-1820.2415339265,-209.1384103694,1239.2701972511,581.9862604863,495.3160409933,0.3105878763,-1037.3722399283,-768.0184976367,359.5583165986,-2471.2375737744,624.8602316399,-106.3923597725,1731.5310631277,-848.1357779628,-475.0533820407,-2.5525130207,292.5611681473,784.8562869725,460.1606760586,-431.1556892389,827.8336091306,392.9181204702,-981.1589905786,138.4679701899,-0.0817062786,507.7982998887,284.9935391156,108.6781046998,-339.2463842157,240.8452780098,592.5603510237,-440.6918282482,517.5156369777,-86.0777309763,23.8762675278,-653.891388777,1782.4707452781,2477.8138166749,-2040.1287807456,211.2895454824,534.2892913005,-1148.1103167635,406.0582691928,0.8895917007,801.1602302088,510.3181093194,544.5042149673,-1598.3367674055,-81.3384703539,792.0489867158,191.5663621575,250.5693477633,-422.5136308669,29.4388157917,-0.5371132282,715.2029648205,565.9879878583,-364.2107788219,308.9803616263,188.5940965729,-507.7713277788,184.2032292053,0.5945739741,225.2636461525,283.572367443,247.1389902013,-233.8646577171,-12.6721455747,379.2771940866,-217.8792729099,345.9119585005,-101.1397751706,95.7728905787,-71.9640048523,-621.6848858592,33.8092529653,-1448.920731245,-309.7648291267,688.4881325838,-252.9010064587,553.7821206327,-0.7559480851,1399.6378605384,-690.637765036,-703.1723851068,-1796.9769401652,329.1739289239,200.7941957003,139.9242216984,-125.7429332369,-57.149106635,-149.7450968627,290.2019837094,483.1442150795,249.333513987,-429.0107398111,30.1203460518,201.6766508598,-439.670061347,439.4896547268,-0.2248113902,793.7675975254,113.400754079,14.4111901841,-316.0271738418,-135.0100238909,351.7257172502,-327.1163860696,399.724604903,-18.8104754135,114.2746098317,-1316.7623949333,2895.6408290087,2935.5631979441,-3432.7735168483,941.1884933697,751.1811911355,-1971.5721132775,1295.8564002517,0.338341581,1130.9042277823,531.7189903596,653.5126263139,-2650.3847711021,260.3878012148,1056.7789760466,-255.0721468452,924.4483833994,-719.4731141526,-250.4979899597,154.2588319686,846.5968226475,755.8306063538,-409.5167654902,1267.6867605749,466.0784367039,-1090.1081509807,163.6069752633,0.2465730748,314.5145436382,239.8284010537,458.5434826946,-276.8428153554,503.4504979872,551.4258180723,-562.1796820691,751.5748978152,-137.4720285643,43.7558884748,28.0114026997,545.7141990945,91.7708722516,-86.3963796227,212.7719126546,179.4249444873,-428.7645699357,303.0787433681,0.0250248429,253.0180367582,193.1603921345,5.7000183133,-81.9290644237,-71.4286774424,380.2092536432,-340.6369948188,427.2747375318,-26.319671712,50.5897269052,-1349.0529063346,601.1758447762,3677.9920994237,-5284.4656972251,-205.9701899374,2020.4016588,-1760.347718752,1560.3215601109,0.621380751,3452.394287238,-1391.5926048791,48.8419351449,-5451.545724494,481.3210900991,956.714837794,959.0486449708,365.5353066356,-1019.3618333915,-106.7373775724,367.4408785633,919.1628330033,-634.2568040742,370.1477375406,596.977207206,-43.920952436,-1941.5919963717,1137.510938938,0.4899041096,262.6878114727,109.5033495515,441.3502543665,1172.6616073729,40.4626350129,-34.0287190352,-3064.4612136983,1786.2839788891,570.4119666754,-36.4948001523,503.8936385908,214.7165021952,670.8456502326,550.6483169219,-38.5346633509,-1299.371087174,3085.3949051424,-724.7717909788,-0.4936309701,-366.7118620262,322.0262028053,698.6818959246,126.1824280779,-460.4840966168,123.8813948941,3118.3955348512,-807.8375036995,-1289.8171993884,-353.0651867178
biasActivation=0,1,1,1
[BASIC:ACTIVATION]
"org.encog.engine.network.activation.ActivationSigmoid"
"org.encog.engine.network.activation.ActivationSigmoid"
"org.encog.engine.network.activation.ActivationSigmoid"
"org.encog.engine.network.activation.ActivationLinear"
