encog,BasicNetwork,java,3.3.0,1,1445297980374
[BASIC]
[BASIC:PARAMS]
[BASIC:NETWORK]
beginTraining=0
connectionLimit=0
contextTargetOffset=0,0,0,0
contextTargetSize=0,0,0,0
endTraining=3
hasContext=f
inputCount=18
layerCounts=9,37,28,19
layerFeedCounts=9,36,27,18
layerContextCount=0,0,0,0
layerIndex=0,9,46,74
output=0,0,0,0,0,0,0,0,0,0,0,0,0,0,0,0,0,0,0,0,0,0,0,0,0,0,0,0,0,0,0,0,0,0,0,0,0,0,0,0,0,0,0,0,0,1,0,0,0,0,0,0,0,0,0,0,0,0,0,0,0,0,0,0,0,0,0,0,0,0,0,0,0,1,0,0,0,0,0,0,0,0,0,0,0,0,0,0,0,0,0,0,1
outputCount=9
weightIndex=0,333,1341,1854
weights=0.0335782139,-0.5397729149,-0.5733453981,0.0506674486,0.7132757779,-2.5334934551,0.5445213341,0.643324684,-2.9642116034,-2.9133530422,2.0874976542,-0.8083787473,-2.0642179085,0.0511227089,-0.6527656948,0.864554031,-2.3903457326,-1.3548270593,2.7357067813,-2.1957632745,0.0667016208,-1.6670934382,-0.8904373439,-1.3781279581,0.8187011889,-0.3146785934,-2.6875201675,-0.8022485174,1.4405854944,-1.4084068229,-2.1515690973,3.3006349393,0.6866368128,0.10113396,1.2341492971,-2.6874251381,-3.0342763494,-1.6393882515,-0.4305302506,1.4530196684,0.6486970783,-1.1608135495,-2.0793778329,-1.1395081841,-1.2137777523,-1.9429043146,0.647200871,-1.6565760503,1.5093438577,0.9936476334,1.546930025,3.1170056102,0.5665100215,-2.8584540256,-1.9001289725,-0.7563102103,-0.8809653606,-0.7131592666,0.5239465305,-2.0946438402,0.5207762845,0.3565759708,-0.9985954588,-1.4347186039,3.2663817614,-0.1324552085,-1.8102705217,2.2127197636,-0.6813408098,-0.0550321154,0.1331315047,1.0277480385,-0.3000398525,-2.6545583624,0.0062734103,1.5190093578,-1.8027807562,-0.8755699104,2.4868793121,0.2873143307,-1.2180152005,-0.7801219203,0.6280495567,-3.1474417589,-0.1344031862,-1.3498838404,0.7223411918,1.8424382036,0.0787749706,-0.877008898,-2.9086504319,-0.4539483781,-1.0552372732,1.4203365491,0.0735196077,0.8646935883,1.9355604314,0.2057154802,-2.675268095,0.4487728263,-2.1249629925,1.1542214446,2.4398166408,-1.6676135371,-0.2334220294,-1.9735335886,-3.4056626865,0.363518298,0.0330611664,-0.9636036747,-2.525475561,0.8094149404,-3.3908568686,1.1387939905,1.5254042645,1.1296960974,-1.8465285534,-2.8114503452,-0.6548247734,-1.2961792935,-1.5929639412,-2.6617276988,-1.3727117134,-3.1621742693,0.2244922755,-2.3840784662,-2.2881373606,-2.2801208989,0.4546231365,-0.4222903501,-2.8478760377,-0.8116088841,-1.1603667573,-1.6939428452,-1.1801380853,-1.5537513961,-2.088261744,-1.7784391851,-0.6636747411,-2.7798059507,-2.3158872276,-1.448095793,-1.470794744,-1.9583971168,-2.1444355987,0.143035368,-1.0629308206,-3.1730400264,-3.4649785535,-0.5487446205,1.3552269747,-2.5900361375,-1.7164527137,-0.4957787316,0.4631605102,0.3408526563,0.19447329,0.9774209391,-1.1598079371,0.1684316994,-1.6928299516,0.014524387,-0.9849046327,-0.6677327348,4.0153468538,0.9631424823,-1.3080359029,1.4253575602,1.7821877541,-0.5381289705,0.3067097777,0.2706402792,-0.4549006346,0.9232165318,1.8052028698,-0.3812298345,-1.9234525544,1.2248532016,-0.8545148659,1.3502543622,-1.126123352,1.5109338836,0.232078254,3.0761471558,0.2912347937,0.896566802,-0.5476327598,0.7490152298,1.6279925998,-0.9330342013,0.7070919095,-1.2023629924,-4.0051803203,0.7130274911,-1.9310042639,2.1516104187,-1.5009137904,0.9976845537,-2.2956521465,-1.8940480153,1.4046798254,-0.0301962122,1.2161836893,-0.4703885605,-2.1013908418,-0.7435233558,-0.6457753755,-3.0171261228,-0.6349419226,0.5856727228,1.6882834346,-1.5141985049,-1.3238147415,0.6443567371,2.0069459247,-1.0848470217,-0.1777011268,0.4724094907,-0.5694132791,-1.7440089206,0.0769383053,-3.9108216918,-3.2083748507,-0.3292173578,-3.9582190758,1.944863907,-1.3460904272,0.7193433445,0.5421811739,-3.4066111361,-1.6300288077,-0.9574003169,0.9603452025,0.0882851432,1.0230240526,0.21476282,-2.216919016,-0.9009922643,-0.9564440476,-3.0948052152,1.0987981564,0.8918593317,-2.3897743922,-0.2802160184,-0.7595997502,2.7198172814,-3.1620575804,0.0539518116,1.4493084742,-3.2120369296,-2.9735239436,-0.2071337141,-0.3818428957,2.0478279893,-2.4869015461,-0.3704182963,-1.9359460289,-0.681651334,-4.9653647826,1.4811067333,-0.5956674683,-0.7540206434,2.2000870808,-1.1897346288,0.5431633942,1.1131143415,1.9882687938,0.4605025251,-0.1639542978,-0.1207079484,-0.3619004183,-0.7015440854,-0.0633168502,0.4159384937,-0.148112942,-0.8265916932,-0.8282951915,-0.5563851377,-1.7221223828,-0.5093529432,0.6429356453,-2.0821863345,-0.2267616356,0.9883291481,0.6853980847,4.382993067,0.9870888345,-1.6535423213,1.2155582389,-1.0751785877,0.7810670127,-0.1796834015,-6.1083287528,0.4223398015,-0.2127895633,-4.3628326031,-0.2360960903,-2.298403722,0.6532149603,0.95659199,-0.5817895929,-0.5400130835,-0.5762890691,-0.2810203236,0.7952140122,-2.0203669713,-1.6127667475,-1.8927915272,-0.4891472281,-2.2541521237,-1.0355893629,0.1547090753,-1.872119296,-0.2931837303,-1.1057460509,1.4949593049,1.0226331737,-0.8637587519,-2.5167915036,-1.1801608602,3.3092748661,-1.0291069462,-0.6604294717,-1.01406831,0.2669654156,-1.2852159947,-1.6668912882,0.5115056525,1.4233697753,-0.8313751922,-0.8544178279,-0.8635094872,-1.726534987,-19.1675353919,-22.8621159997,17.9785039207,-77.2721486914,20.5488286643,-40.7889751577,8.1364510404,-89.0004621811,52.2814772076,55.0626824166,-20.1754993681,-13.6228284288,-16.8470116579,-16.9899859626,-32.4891164992,24.1987910236,-21.0139264701,-10.8471767231,-13.1692211984,-4.0345820607,-22.5224207069,-21.3048194262,-21.021266219,-20.0512118663,-5.9360338061,-88.2248209559,52.5657231375,-20.3555699107,-24.9838571067,-28.4596420959,-11.8384412437,-109.8344179305,23.4171679459,-22.2122163424,-58.7942053093,36.5979127975,-75.8150123784,-30.939904128,-33.0435364026,-6.9792908117,-20.9007832766,-11.5664329498,-10.1384204028,-93.5045803267,-17.9123274151,-43.0844833053,-12.0295315507,-63.0359829828,-5.0746684335,-86.2754568353,-18.7721868776,-5.7574756174,-172.3357974891,29.6830916108,41.870008453,-2.9922470387,22.5765641456,-15.9743406538,35.4438034363,-46.3651984254,44.5478979312,-2.7888641902,30.3724120223,-108.1460018366,6.5572652411,4.5872712557,-43.8757785718,-24.3460730175,1.8831711404,-15.0575378913,-17.2229200576,87.7712488624,-32.6177963336,5.1496515057,-21.0666608713,-3.3057499038,-14.3395107187,-13.6992104375,-21.1661828418,-15.4416950499,29.1169516779,-82.6942178072,47.0528587546,-26.8583377982,39.0054396384,6.3733004922,57.3389694482,-0.5814144728,-8.7255297228,35.9419498248,43.8112869174,-5.202430029,121.6500996179,-2.7134321646,-22.9879982228,-21.5381506113,18.0569676866,-15.8529364582,-19.3712117061,22.2362548885,-5.8428651655,-16.4467020973,-10.6856914957,10.482896953,-23.9506350614,-8.6143187012,12.5713966568,-25.5727398153,2.9345588227,-29.9799818322,-6.526886016,-22.5438135041,-19.7045850494,-7.7884611218,9.8922190028,-61.0329217429,20.4262815221,6.4635129932,8.1782698098,-17.457465203,33.749932989,73.2662693648,18.113899927,5.2248249097,-15.1269208496,4.5184708863,-10.0190881728,24.0745718482,3.4748014931,-19.4547479317,-3.457717566,32.1825014863,-6.5897170034,7.900686962,9.6713846394,5.0816069714,-3.2190039476,0.1629831458,-21.9371070435,-5.9219415211,-30.9802427874,-10.557521146,-55.1484666095,-78.7479030781,-53.4665299777,-36.3787701044,-85.8128487636,69.8249970745,34.6900824928,31.2014565362,-26.3420942848,-0.7468455763,-12.0531142642,3.1674536842,-8.704461933,-90.8577857447,7.4661521535,-33.737604033,-6.8317847518,6.3013133806,4.610614283,-71.0315259325,4.6512823413,-3.083029806,-61.3819724897,31.9428874829,-10.739663501,-6.129600842,5.4176684259,-21.3933674986,65.3008482344,-75.0962841907,27.9958613197,23.1201013931,27.8145046059,17.9360234715,-19.6746159632,-27.2477950856,-25.0158577944,-5.2775562561,2.1967453501,-24.1321084058,-6.9773419759,-36.5962422854,-1.7647924566,-26.2067801871,4.3187348192,-53.6132095729,-15.9051800661,-39.8136044458,-6.5745798454,-5.3769499113,-89.6162070863,3.4587511032,-60.3893278913,-11.8730261784,-27.0763995974,-33.5748040882,10.857121032,-11.4757195789,30.420340501,-25.7359510846,-3.1489790156,-100.4205940141,-1.2932794089,35.1402840675,-14.2816493033,-23.3132521592,-27.4846730253,-21.5966714438,-43.2091024194,79.9231899097,-6.2494160998,33.5482647342,-4.4361377358,-5.0196345968,-23.9244716214,18.3929283128,-6.2016266621,-13.7252344525,62.0294812939,-91.1268645668,31.3680406939,-24.708387951,-1.7659749306,11.4225795915,-3.1565857976,-64.0582755062,-57.2424060066,-46.4633762721,-42.7171096987,-2.5727144434,32.9107060767,22.8273640344,7.3240120841,-4.0737072814,7.3778542194,-10.2418280439,-3.3270246009,-52.3207050783,0.3544092107,3.8025672099,-8.8777390097,-15.3754169609,1.0033374301,-19.0865754165,-9.4257336521,-4.5889397772,-21.4718599028,-25.2185428861,8.1106364887,-11.5190672174,-31.950067286,-33.6476749798,-79.4642624011,15.0107209837,-18.1092198487,-45.0304234816,-43.3766435448,-1.2607776195,-48.9744780257,-11.904172935,-76.0406963724,-6.3726623502,-18.6522747012,-13.2392523654,-22.5841034553,-34.0619423652,-10.220576414,2.0372356296,-3.8677049924,35.85918088,7.5572517427,-40.4492162935,-10.8279121727,-6.5476739811,15.2360455864,-14.4960835281,-14.7720389323,-7.0371674645,-13.8174594216,-32.8219116153,7.6019053588,-62.1826079701,20.2314822289,30.0197514007,-21.5667874756,51.2811642776,-3.7155904104,21.226071529,-49.9875072032,1.0714746931,-14.936641515,-6.6010429658,-17.7604067552,-56.5071862625,-1.8901362294,-61.8499852898,-10.1275736683,-29.4881239535,-11.4701572203,-72.731955926,-5.1238621457,-1.3653084046,-111.710926055,36.6709864806,-17.4879068794,-11.4058493749,-41.9175299931,-35.5999217343,-77.8790198173,14.1803572291,2.8365031137,-18.8231386762,-29.323343349,1.6719956336,-50.8769984708,-4.8761489677,-66.4537226234,-4.680165435,-28.3393063723,-11.5933792247,-18.4524284222,-2.539384401,-8.6308870859,-12.8325109498,-6.3086899606,39.5403255959,6.4458423626,-33.576175822,-10.0754170693,-3.247081661,31.4654536266,-5.0052645244,-34.8224857713,-4.7848427838,-26.8037159275,-13.3190198769,-28.0722343884,-90.4156470175,-35.7355793284,-12.9080015973,-60.199895788,69.6459627827,9.8740360239,20.1014851751,-33.0443993222,0.4607249742,-11.73341745,-3.801403592,-9.429583001,-80.7645509243,-5.6164226126,-54.8217419555,-14.5523141151,4.0848265111,4.8896291624,-69.5081591164,-9.0195003719,-3.8793063328,-56.3913249344,35.5131881753,-30.2450410998,-9.0118840794,1.3300722276,-4.8094066907,-55.3650019678,-21.8740781965,-35.0098213709,-37.5336609103,18.8199423438,-26.1136655559,4.0602926432,5.3350925753,-18.2398985405,1.7294575762,11.5979288484,-10.7306912975,-8.9340243026,-19.668012437,-10.2751952601,4.2789244473,0.0378108531,50.6962284471,-3.71781747,-5.9467895275,-14.4057132627,0.2826375237,0.6492518017,-31.0874952682,20.6777430479,-11.2244401105,-13.2937270317,-40.4685425524,-60.1200514194,-4.3892584818,67.1682239679,45.1643995758,-42.8963011136,42.8781220592,23.7973658174,-10.778545894,-108.2588440294,-7.1645867842,-15.4867192863,4.7108374253,-11.6941746108,-12.282961334,-4.0340456279,-56.4117967876,-12.2183174179,7.6261931086,-2.7961229677,-80.1082258464,7.9647407836,-4.6134373708,-3.88512543,-2.1381599241,-9.0554001327,-7.1900520405,26.4066301939,2.1608276746,61.332099273,-98.9342188178,50.9433036413,60.6788339478,16.6508148503,34.0813822034,19.9378948114,-29.3296165326,-35.9898315095,-21.6180242458,11.182220098,-6.1557305156,3.1531174267,12.6397215676,-21.4680979382,-37.1685177133,-18.0735607955,-61.4615529588,-26.9270852925,-71.9241648811,-11.9708014166,-18.4268207503,-118.0424921172,8.7583581298,-1.9896987752,-18.0444204271,-18.1066946305,-24.5856863136,-8.4702189901,6.5911814408,33.7894987471,18.9230825031,0.1121293065,-4.6579755367,-81.2381248517,-53.9281757756,-56.073535806,-17.8799130518,-10.3416034156,-15.6791565871,-16.3912155745,6.6688697322,-17.4790092704,11.9528095611,-8.5918096072,-28.7424175849,-11.5831430108,-3.6371359713,-13.0728731703,-9.8064236556,23.9422483238,-32.0751291333,-1.6849659232,-9.0267058746,-19.1804426448,-21.6712409097,0.7878307119,-55.9988498459,8.5614477078,-63.9670029582,-32.0326369329,-92.5501987455,-25.0824854223,52.3071221066,-18.8199650566,-4.1847646678,-24.0809438917,-14.4874061705,-34.9578881214,9.1492758241,-18.4571358364,-10.5055898912,-12.2860567677,14.7793371318,-1.0789635304,-16.0357680067,-16.4181496297,-0.7407501185,-37.6877202818,-48.0016202077,66.0557397463,-9.5446554367,-7.0443963087,-2.2477565524,73.2367521305,-6.0820636489,37.6159585202,18.8227208237,66.5091745498,-26.9302483023,-76.47248681,-28.9658111002,35.8389498624,-1.1010183886,-22.4940975409,-12.2572429903,6.8459666839,59.6117779029,-8.9748167775,18.8369594849,3.8151884864,-29.4657689586,-14.5560514252,28.7699118787,-15.3086133472,-7.9391005785,-18.9633517979,8.3262489871,-64.8848295952,-10.1411781583,-17.5783548448,-30.7264530689,-9.6196812111,-17.2260941263,3.0612223594,-16.241362737,-79.8352548164,0.5275375899,-15.2105738704,8.8435407079,-56.1741498546,-3.1775431926,-20.4390259986,-19.3588171073,-27.0227396934,-17.6972142376,13.2413194531,-14.109409846,-0.6134310877,-5.2330646979,10.6332487186,-37.8154588407,9.1922476437,7.1723931636,-20.0587674393,-4.1707997246,-13.3884306215,-2.5944541428,-9.1773278911,-22.8735977096,13.0526393407,-25.8092895324,51.3192867825,-16.0119880406,-9.9066003277,-37.1696168638,-24.6332408553,-13.7992821897,-41.1263527775,-4.2910435095,-13.6819350454,-10.7062180017,-14.3547937844,-7.8162734826,-12.1470782137,-22.3150534468,-2.8727706424,-31.9314588126,-9.9004292242,-41.8872489536,-15.0674766201,-4.7653446448,-52.5036553632,-38.3172286292,38.5985596478,-9.1104492044,-27.317008614,-36.6194412949,-56.1652828744,-12.1940417895,-14.2549903006,-28.377828542,-51.3341856106,16.3703013037,-25.075378397,4.4826735679,-68.7155957176,-1.2044602758,-18.30936521,-10.8596859496,-19.9990831869,-42.5409097714,-3.1417114679,-28.0300752471,-5.7967976481,22.9692814857,9.6440588824,-58.2048419635,-2.7758252524,0.5601506707,-30.8814326669,11.4029455764,-20.3466747401,-5.3342671882,-45.0804472506,-28.8856974462,-85.9247415961,-6.9904607505,-1.1462655499,-19.3256320053,-50.8225631761,17.5460454769,-55.8010276948,31.5804730587,-30.5404996372,4.8143568984,-29.2258185268,-1.206148797,-11.4582051785,-22.3443310349,-2.174243817,-22.2721098888,-6.9801954945,50.8574996789,7.9425828275,-19.7977404604,-5.7872540083,8.0753274895,13.8189579338,24.4709429216,-40.6769403864,-3.4683417288,-8.153535307,-9.4594374363,-20.1585862537,-11.1036003227,-32.0426718014,-1.1747671681,-5.8607155091,47.4602323961,-0.1592284649,-12.5266896456,-14.0817611051,3.7084536179,0.4155070666,-0.9152954582,6.3864123635,-29.3154835323,8.2032428245,-9.4131982647,0.0942564078,20.4852309841,7.6025517079,-16.32290553,4.9839960137,5.0409077875,-8.9806243639,35.3985198515,-65.2130492205,-2.6791900466,-34.3601634783,-23.6397143793,-25.4667662947,-64.7581439041,28.4933587523,-16.6790932641,-63.9624906198,20.8351071027,-71.6630797679,2.2845536313,-27.3836219768,-7.4126017581,-20.7628521411,2.6917264562,3.7864795093,-47.8450998659,-19.3429437045,-35.0787531214,-13.9684855717,-71.5198035702,-10.1966444313,-57.3116566371,-29.0674811965,-3.9735254228,-86.8139841279,-1.7109918541,36.5512245522,-6.7480418795,-2.9485500155,6.3275749891,56.2156799256,-49.1343533002,-13.4618764735,-22.2794055031,11.4220578432,-58.7678319719,-19.1810878715,-10.1152641708,26.9541246779,-12.2087024991,3.2070763691,-11.7193955656,-20.5927861629,15.1909115314,-11.4776435899,13.1882545072,-3.808118183,-26.4291607608,-8.2147301404,1.2074954582,-14.4206860447,-12.3421378888,-14.4851485815,-37.1715695928,45.5022114747,-12.9743661117,-25.5451613357,-46.1491388162,-43.890571441,-2.9641144685,7.2451436876,-37.2525766953,-66.2794782913,15.3832953069,-0.265347039,-33.6680653157,-103.9746399461,-11.9153931757,-20.3143874256,-18.9564968157,-44.131645081,-35.6637515578,5.0004907779,-6.550960679,-0.2104030347,-28.6762292432,-7.9611039262,-82.6173321743,5.6138879016,-13.6845383148,-69.749676824,-22.3871054348,40.4997665933,-3.3793985051,-51.4135155627,-56.9550638245,-71.9418521745,-4.7017957251,58.4662161124,-54.5533947084,-46.3559721476,-70.3882828759,-50.7831548195,37.9735886606,-91.7773557963,-11.4301306683,-47.1145379217,-7.4589956973,-42.989001821,71.1804699618,-20.1607567393,-14.0836231934,-11.1600629001,42.4033093052,2.487864308,-66.0745253607,-19.6122411685,-6.461761286,-13.1133424894,-40.4746824747,34.9614515919,-12.5429195852,-30.4068476418,-46.776928982,24.1813159785,-114.209955822,47.6474356118,-21.6926306538,-52.8607131567,-4.9263377236,-53.1130706109,33.5927205661,-34.9432914986,-5.6330510782,-35.4685829066,-9.422089867,-24.184013048,-45.250065805,-15.9013678579,-53.5915313648,-13.2378331761,-59.7130728888,-8.9562038184,-79.9242369524,-16.9719773047,1.8033787652,-128.0167195113,0.5177322601,25.2884898597,-5.960164764,-21.8755070152,-33.9011928932,-21.3321340891,-80.151638294,-14.4600636273,-34.4028204727,-76.4492064653,30.7409624333,-9.1622646019,-16.8412486828,-72.2369815438,-12.7691099134,-16.8438104574,-8.2966977356,-32.077193231,-87.0341265118,-7.2243961197,-37.4768529996,-14.0672564961,-45.7513288472,-4.8367312456,-103.7705621694,-5.3171994932,-11.9355559106,-127.3284407145,7.7101432273,41.3419106449,-6.8914782287,-46.0265022836,-26.6357134257,-84.3446483864,-31.0482319235,-7.7110248029,-25.6319023532,-40.9749450006,25.1198387533,-32.4818195812,14.9618186707,-58.6666831622,0.2831322716,-26.3692849901,-5.1646227149,-12.3826931856,-16.9250356297,-11.0265736549,-24.9237049065,-11.480231888,40.1407863898,7.7935973034,-50.7658512581,-15.4220048978,-1.5554087701,0.5106048563,4.5132576002,-45.297952306,-5.1925774607,-23.5884227413,-25.9500261324,-31.4766608789,-37.0586861147,15.1970288388,-7.9857697844,-41.476199955,24.016749774,-28.8366082547,-7.5986941967,-35.1867519348,-6.0097398897,-14.0655261216,-2.7088944725,-8.8057151053,-42.496728191,-0.5302625,-14.9059778011,-2.1633201122,-50.189278247,-12.0044335188,-43.6938621519,-9.4355585642,-4.999491559,-52.6443026047,-6.2172104449,23.1952912207,-8.0726446364,-23.1532019122,-29.1508487803,19.6273393301,-88.2305006472,17.2074492019,-11.8818246829,-20.6677085944,-9.3979475943,-15.8477174061,29.0288143208,-31.9086932385,-6.6552457389,-25.1693729035,-7.1657796761,-13.8646390455,-15.4545000302,-12.2682661298,-32.0444139779,-14.1939888423,-50.1189247094,-10.6839210332,-51.771459486,-15.0028712809,-3.5747224769,-83.2570876627,-10.0016919255,1.029581925,-10.0371546897,-13.8128684549,-21.1792808763,-23.1945004457,-61.4049856399,23.0418395029,12.6136183958,-45.163661375,43.3862015852,-29.9037482764,11.3703817802,-24.6647626552,-0.2290237958,-13.0202267886,3.3662507401,4.0596265144,-73.182378294,-5.7358528974,-63.9155344455,-11.1185310247,-32.1690474271,-8.1757424338,-45.0023693022,-13.7249268194,9.3640928539,-92.7423863521,42.841830172,3.7803167492,-10.8663182181,1.3783595867,-14.7960223518,12.5478847463,-75.808535768,12.5892171412,-20.5051257678,13.2541348602,-46.7626688961,58.5910507599,24.4744103871,-11.2533582048,0.5478450075,-9.0273930702,-7.49002276,-9.109849837,-11.4016923204,6.229149495,-10.0582270759,0.1232190174,-3.2173600563,-3.492772024,-25.3021202246,6.9592667992,1.6085509157,-44.5062559261,-37.7657367151,-14.2386358806,-7.6255248218,-28.4305723665,-3.3135835489,-45.6737531251,-48.1112970956,-21.5756375338,-32.3842050202,-37.8854058985,-11.6631467641,-67.0053552992,-4.0353855263,-21.4168327024,-3.6022923175,-12.4952796618,-7.351745318,-6.2609426724,9.6098147676,-16.2828230379,1.6341063518,-8.0376907922,13.0785998825,7.7458767073,-25.6132909414,-24.4983972465,-1.7526830118,-6.2181206567,-3.3588990769,-7.32957398,-2.6016664271,108.8589847634,1563.112244919,1769.9603814955,-462.4282330742,1964.0672449029,-509.8717630135,-848.699926309,370.2760542253,-0.7091978044,-363.5831948281,448.7296155332,1553.8484065908,444.3391325005,867.217707599,30.7092229281,-696.2552057116,1114.2219332828,-273.5525928526,-78.6900347115,182.9230830892,2110.5329440681,1271.7328111961,-1162.2209476878,1607.0414710687,-594.4559329149,-1002.4179340711,868.0468718196,-0.279455518,471.4849393067,539.2408677856,773.9418117615,-115.6551556922,617.8364566596,333.0792882396,-879.791113252,1247.4062507326,-228.2581446326,-91.5092282238,-1918.1060712626,1859.8330864862,1389.1593943655,-13.5218051248,1625.3415224705,-777.6254131124,-25.0028387261,-117.1955970646,-0.6567774395,-2905.7973811686,1176.5749715224,1212.9224084711,980.0386711039,930.4579106691,-367.7841893315,117.7559856401,-0.5621048627,-25.8690215923,-204.3247701393,-324.6324568944,641.3330561095,3695.8636594947,-3854.3555540131,451.2046381117,2585.4762407887,-3428.1534840646,1110.2299241412,0.7602862187,3365.8624011955,-973.4839070143,1282.2895081911,-3596.1778471114,-221.3672737455,1208.7310374779,-1217.3619180697,1507.9484026952,-774.1180639435,-58.6945824451,-1752.0282400539,-1326.908925044,-255.9410939012,1251.074828166,-80.721574836,188.0920885209,1039.3806026356,-130.0838390617,-0.7400226563,-1732.2176896345,-751.9575779312,527.8830740228,331.8875765985,-21.0426533175,-344.4453655724,527.353461156,-16.8179323459,-300.6980650999,-76.2960934731,-912.8964943611,539.2123530821,1103.1062354007,-363.7031556234,1681.8505379225,361.9908487148,-2013.7442415951,830.7745510033,-0.8090563528,-671.1678010062,-572.6199961411,1443.9629979853,389.5883826905,1100.1241842315,-486.9306139869,-2267.3169302097,1691.1033907255,46.762802979,-101.6768797392,-1698.7623051954,1160.5252522094,2102.3889835918,-1568.3726040052,979.0995955956,206.3604686325,-1245.8919284064,491.4820613798,-0.8590086044,-911.3613645073,183.2496642038,910.4558532584,-633.4636038515,908.5941169781,-340.4390711001,-693.1330091332,232.3620486182,102.5454412759,-252.3282242926,1870.2546972637,450.50948293,-1128.2072319003,779.2680536266,1276.3785815513,-205.2335897865,-2723.4964658831,855.5757326273,-0.7592917878,979.1998979745,-291.6651850216,663.7368190132,1920.4967411962,203.5648292603,-270.8018312039,-4240.2942203639,2472.8962162581,715.0248986529,-54.4584066402,1279.232532363,757.9248858167,515.37981557,-1084.7876951839,4180.6085573722,86.5596626505,-808.6933798509,-407.9041742132,-0.2060547283,469.3084542734,44.0449482551,353.1868944153,-795.7983332263,2719.4116444927,527.3297729531,469.2182330508,522.5896602315,-659.9239030904,-619.1132832558,-155.5373235983,207.7285373082,-1184.7925867534,-112.2875424529,318.2242825874,-111.6765506739,583.0606367157,194.5380299775,-0.4713667725,-6.2499722727,108.6893994149,-1330.5075411727,-651.6696842304,432.4096760235,425.8469102926,759.9737720033,-256.7563569637,-30.3269374869,-279.8503919235,-400.2967233709,3888.2114195632,1566.2733827132,-2038.7050282655,1676.9436310502,-889.6194632743,-1443.5331159697,1514.1849221097,-0.9693175634,212.0427929213,1256.0172441563,444.6864952424,-767.8443078216,514.7884712887,930.5472732017,-735.3175770708,1342.225655931,-296.6856432228,-194.3564987805,178.3618055932,584.555762671,46.2437009427,-265.028116945,284.6262767701,131.6874643039,-490.5924178683,449.6989960845,-0.9422075513,474.8001685985,168.8182987701,-44.2123898088,-114.4606326102,51.9073737467,336.8350765916,-443.5118343721,463.6573752309,34.6970833374,93.7824555847,619.048443134,1474.3145585075,1429.1878412281,-642.460725688,1498.8298289374,-307.651270576,-1240.0349402663,398.244368993,0.7041048825,294.7466290613,367.1011055427,1187.7674271034,440.3896005963,643.3905298565,-52.4302110803,-1176.1729805225,1138.9330814454,-68.9195779271,-13.1664852163,86.1909589173,773.9714795996,518.0410115668,-382.8724224447,646.7900002309,26.6326644634,-679.7419934818,604.8827598935,-0.4049478477,445.0365040696,33.3071038194,345.7090156951,-117.0194611868,230.0188296826,247.948551739,-639.2895007973,859.3661248806,-123.9375167808,17.3429206562,191.4403109747,1314.6852573926,673.6564537643,-577.1042498699,851.3924571707,-292.375266444,-1035.3176596004,878.3641540639,-0.4297167194,523.1975548226,163.3522058147,491.1520133982,-4.9005636836,245.0141498626,274.204842473,-1114.9325180932,1195.5091273233,-59.6881278277,-48.3789963789,-3700.2959151676,-675.6775014067,2083.5218757278,-1811.4524770869,-206.3777082317,1235.6729191772,581.6255000807,498.0954908301,0.3105878763,-1037.3191829681,-764.2833977652,359.588380472,-2460.5876841949,624.43655472,-106.8715640681,1729.7841910682,-841.510462927,-474.0791066711,2.1142829323,292.0940200145,782.827001357,460.4826056724,-431.3651240706,826.5775466787,390.9752464404,-978.481947469,139.3687281339,-0.0817062786,507.4070615432,283.9709854368,110.0786304386,-338.3486716452,241.2323250073,590.2053369437,-440.2339913456,515.471783592,-85.640395524,23.3337338177,-654.7170027409,1782.3284252685,2467.1568898999,-2035.0200495151,215.3984934716,532.2845146805,-1146.1207766318,408.4803189027,0.8895917007,796.4091561681,509.4915315346,545.0640512572,-1592.1665218094,-78.9049283078,788.4473750865,190.8188120236,253.4651243682,-421.4206615486,30.3534227941,-0.3076070304,714.6044787795,564.8175363507,-363.4147590082,309.1065132844,186.6580595126,-505.6954131661,185.1187450706,0.5945739741,224.8127740854,283.0540063437,248.3535434947,-232.382594137,-12.1343628828,377.723191768,-217.3267909135,345.1983185145,-100.7533419063,95.9637502869,-70.8086409071,-617.536719285,27.6970963147,-1437.6044506449,-303.3990837881,686.0723521272,-250.4324075918,549.2205693329,-0.7559480851,1396.4924713575,-685.1458715265,-698.7390644967,-1789.1706161027,325.5121887113,199.3387161735,138.473343715,-121.2708050048,-59.1569516613,-150.2796064022,289.7823608818,482.6947157804,249.0884697488,-428.1772203199,30.7685390101,201.1840475735,-438.6917871421,437.4657360236,-0.2248113902,792.1910496413,114.0739359189,14.7903126797,-315.3100847641,-135.310462868,350.7030103847,-327.2689733934,398.8733040884,-18.5785891174,113.3155839009,-1315.2065806031,2894.3042901476,2925.3419888482,-3425.2953693487,942.5625991989,746.1475109845,-1967.035477967,1296.8044423604,0.338341581,1126.4546047915,530.8001153057,657.1768696656,-2639.8502972659,261.2121742604,1053.3611938456,-252.9875963032,921.0716784637,-717.2548372191,-248.4780348678,153.5110676323,845.3477291286,755.3653635038,-408.6152831413,1266.5986353318,464.3072592695,-1087.9685188854,164.7066652941,0.2465730748,314.2347937845,239.2884717762,459.8546664597,-275.5003721891,503.2737321567,549.5538226999,-561.9598782068,750.0671713442,-137.3844565166,43.2512474887,29.023277349,545.2494114691,92.8407550495,-86.7800369809,212.1754883098,178.0200031379,-427.6081147339,301.3275571899,0.0250248429,252.6794331097,192.9554480461,6.5012575769,-81.122463373,-71.6039990313,379.3957399837,-339.9976397743,425.4889253871,-25.7433064507,50.4371482071,-1350.69723785,607.4563579124,3658.0856526081,-5269.5362795867,-199.1035122666,2015.3448707582,-1755.7694243706,1560.4256684953,0.621380751,3443.6457207808,-1386.3039218674,50.8061569093,-5434.7963962526,481.656363,950.080366855,956.7984536678,369.9527085337,-1017.3560531985,-104.4576666781,368.6623094115,914.413892085,-625.5654054725,367.4098646161,592.8414640224,-45.7739570057,-1937.3331401731,1134.8040233964,0.4899041096,265.0470224108,108.3065217215,444.542615435,1168.8417772453,38.5931389146,-34.0649612484,-3059.244112698,1776.4062231353,570.0642760631,-39.3899964291,502.2499213997,214.888757947,667.0170492546,548.5994229998,-38.7574247839,-1295.0086526179,3079.2142167269,-725.3360540182,-0.4936309701,-369.1214417214,318.9449220922,694.3628618151,125.5275462864,-458.6647966771,125.1142678612,3114.8150201759,-804.448551705,-1289.0916193994,-352.6778103299
biasActivation=0,1,1,1
[BASIC:ACTIVATION]
"org.encog.engine.network.activation.ActivationSigmoid"
"org.encog.engine.network.activation.ActivationSigmoid"
"org.encog.engine.network.activation.ActivationSigmoid"
"org.encog.engine.network.activation.ActivationLinear"
