encog,BasicNetwork,java,3.3.0,1,1447018451324
[BASIC]
[BASIC:PARAMS]
erro=0.02
constante_aprendizagem=0.024225
momentum=0.4
[BASIC:NETWORK]
beginTraining=0
connectionLimit=0
contextTargetOffset=0,0,0,0
contextTargetSize=0,0,0,0
endTraining=3
hasContext=f
inputCount=18
layerCounts=9,10,19,19
layerFeedCounts=9,9,18,18
layerContextCount=0,0,0,0
layerIndex=0,9,19,38
output=0.1052081004,0.0025414882,0.0006173721,0.1933940485,0.0000521868,0.3583520453,0.0001898116,0.4659533139,0.0000262297,0.2125888886,0.9547787346,0.054181067,0.3011112923,0.5907495384,0.9965165565,0.0480408963,0.9647991151,0.8548062681,1,0.0786033321,0.0055206412,0.4869329358,0.9995417354,0.9998490657,0.2523849059,0.7568223823,0.9351089541,0.0913720272,0.4895135538,0.0004094566,0.6696530968,0.0084132316,0.9771499606,0.5089692084,0.9825665776,0.506273163,0.9958631457,1,0.7777,0,0,0,0.7777,0,0,0.7777,0,0,-0.7777,-0.9999,0,0,0,-0.7777,0,-0.9999,1
outputCount=9
weightIndex=0,90,261,603
weights=-3.4681581476,1.9451102275,-5.1226445918,0.5850038361,-5.4904830742,-0.8224477153,3.1233293859,2.1552576187,-0.7714674306,-0.73945441,-1.626826997,4.7733800679,-4.1253831751,2.6301751857,0.7115833171,-2.8156182226,-2.9177430182,-6.7855466697,-0.8984034971,-0.922746992,-0.5522044161,3.5451309574,5.3929209749,-5.0337233057,-2.61550179,-2.5415876932,-0.7744689251,1.2946368629,-5.6187915656,-1.9988006849,-1.4641132618,0.1037732941,2.2834081769,-1.2316937217,-1.8449532825,1.6152277548,-2.8531919188,-0.8544464204,1.4271537279,-1.7187886874,-2.2306680802,-4.973177325,2.6359509016,-0.55783767,-0.625723563,2.5553750632,7.2895770775,-1.4149633277,-2.5757418563,-3.6016787275,-4.4124021371,-1.6775808535,-4.2849889647,0.4398220185,1.9252973983,2.8598706886,-4.2786766643,2.7922201016,-2.9728081379,-1.7686069155,-1.8110916019,-5.6733473944,-2.7430742255,0.1871003561,1.6146403087,-6.6060068965,-1.0036857004,4.1197716405,0.5136286925,-1.3359676198,4.5884189637,-0.5166576919,-7.0140623944,-5.8299618643,-0.5347176189,4.3096645267,-1.8556719705,-0.8850863177,-0.1774721174,-1.9257984876,1.6115307023,-4.9713800509,3.6679970357,1.1313908445,-0.462727821,-0.2091548037,-4.8070475939,-5.6158089457,0.559522311,-1.1136644175,0.8299050475,-1.9730037385,0.7863853412,0.2373411475,-1.0061494151,-3.1622632793,-2.4373519347,3.1190528569,2.1619793399,-2.1178949331,1.0356804329,2.5605735102,-0.8005172283,-3.3354340423,2.3774675669,0.6767172517,2.2457380733,-3.143770547,0.4235062086,1.5595993993,-0.051476459,-2.3891574046,0.0579965083,4.9476150754,-1.5437033974,3.9315993139,0.5871140163,3.7390159667,-1.0348515714,-2.2820242766,3.4705110818,-3.6659062493,-3.2826694055,-4.0030412592,-2.9838640151,3.8409719627,-0.9631061782,0.4832179172,-2.5964184217,2.674329838,-0.8643847153,-3.8927673594,-2.8470657458,2.1924438288,-3.2473296495,6.0113982138,-4.9887343384,0.0238514796,-1.4350191963,3.1722340008,6.981009836,-2.7338910894,3.9615019569,-3.8606630366,-1.7212094206,3.7241258184,0.4316280171,0.8921382195,1.8500770085,-2.2286027872,1.8841910959,0.130791787,2.5841956612,0.227673493,-1.986233487,0.1422129109,1.3570203851,3.4922536365,-4.2526182507,0.8126520483,3.9435348978,-0.5382523906,-0.1406602926,-3.2067458834,0.9696591727,-0.6164971085,3.2318783033,-0.3470669196,-0.1222692159,2.7045956102,-2.3020675203,2.3191333293,-1.7421875672,1.0804819789,-1.68377929,1.8417252296,1.4752176904,-1.0072615299,-2.1143819377,-2.0752772316,1.2101041489,2.1665352413,-0.6108431427,-0.5423143464,-0.1488566847,-3.8347058379,-3.0233723942,-0.600497144,2.16687469,2.2112992895,-1.3755675534,0.9811605251,-0.4046789962,-4.1476743605,-5.4261676596,-5.0939471787,1.6452615284,-0.9175909161,1.562661655,-1.1940597351,0.6723408834,1.2701822959,0.653819706,0.3434193839,-3.9893633639,5.0691701834,0.6831292814,-6.4290212366,1.602145513,-1.0911885108,-0.7402482689,-1.4893234222,-0.1478567695,-3.2357121908,-2.9338338565,-2.0390898264,3.7551534061,1.303964976,2.4207352084,2.5984900633,3.6604069878,1.3847791866,-1.8456952339,-1.2982387813,2.4127368175,4.8671169393,-3.9218889143,0.5206539731,-1.6691719112,4.8959643153,-4.4783110399,-1.9242851037,-0.4517055619,-1.7665418464,3.3056665392,2.1671841641,0.3641065316,-3.156163777,2.9228288817,-0.7156109994,1.6765134694,0.5936620395,-1.2072147637,-3.2285336183,0.9612876509,2.1708525168,1.5108721313,-0.6953943031,0.3144703257,-0.2350336053,2.0657169181,0.4556836958,2.2482987187,-2.1238351563,-0.8995655362,1.6917907837,1.1037269444,-0.8093558984,-0.0629975528,-1.9803999762,-0.5430731692,4.1907140653,-3.0252002072,0.5967398948,1.0800465632,1.9581333322,-1.3430361814,-3.8242860059,-1.0596283264,-0.979956726,-3.3932989255,1.9280757614,2.7580011797,-0.5847429912,0.3893157184,0.004233469,0.6751176635,2.0663967036,-0.0946582214,-1.4766276277,1.3850915013,-0.9886609737,-2.0822715882,-0.9185939586,-4.2623975295,0.7225574142,-3.7030663057,1.4901652264,1.4258944376,0.4149187661,2.1684858943,0.6754746528,-1.2536245274,2.113541215,1.8252573888,0.7471688702,-0.2800400455,4.7604493777,3.5929357693,-0.0147413006,2.5259096395,1.436778109,0.5219403148,-0.512451718,0.7240682225,0.2418801046,-3.0132308205,-0.0982250989,0.5484635818,-0.0813577077,-2.5257506602,-1.5622566302,2.4331154331,-1.6648167975,3.5207396158,0.3611083242,-2.9297691228,-0.1853035601,1.9694423406,0.9511627315,-1.2336906558,1.6244344062,-0.8285343289,-0.0662957116,-1.0512755097,-0.9701983855,-0.1834650955,-1.2059794874,0.799693811,-4.3604358508,0.3231050857,-3.7736741215,1.2883023713,-3.546428693,2.7323858875,-1.0087285815,0.2324041102,0.6538199749,0.5042570218,-2.8048714239,-1.0161999827,0.1030275642,0.4931851095,1.0971794787,3.3198570089,0.8546437969,2.721143983,-0.323988937,-2.7482575457,0.8834789535,1.7162610596,-3.0156090775,1.475767191,-2.3344362156,-3.144008033,0.3893492345,3.294444302,-0.5331604264,1.8974307939,0.2838956161,-0.8856053352,-1.7245571574,1.2566037142,1.8912704241,-3.2527762926,-0.2913639664,2.9498190797,-1.3060500017,-0.1716093628,1.4965938627,0.8304798199,3.1830035836,-4.4695079845,0.713848343,0.2534320782,-2.4278259516,0.3759996807,-2.6290883987,0.0531225674,1.0731571304,-0.5262413119,-1.7741592503,-0.3713533895,7.2320728719,4.6549694406,-0.1882553755,-0.7487263538,-0.3094871459,-3.9567247907,1.7582251393,-0.0577619645,0.2488970604,-1.9656836317,-0.4371328862,2.3776804385,2.7604978983,4.3950098333,-0.8821294943,-0.56986332,2.1847765556,1.705771145,2.1918942758,1.6089858868,0.6795076172,-0.4895451464,-0.5014893321,-1.229947208,-2.4671950686,-4.108643564,0.9732610244,0.1086639436,0.9176978495,-0.4461189885,0.1513054387,-1.12981546,1.0594192044,-2.4687622087,-1.0232773741,-0.4101864523,-5.327106388,0.6861207482,-2.4197606478,2.1297849202,1.6757895157,3.5437165942,1.6462278559,-0.6861255388,-1.239068198,2.1003494724,-0.1437723693,-2.902201692,1.2221508433,-0.9947545599,-2.7008754287,-3.6317785653,0.0553115981,2.9433823367,-0.031414166,-3.7868057063,2.2934515449,-0.5443935587,-1.6942418003,-0.5412641801,1.4615834627,1.7980925864,-1.555888593,0.2189610184,3.6175884559,-0.6178321146,0.4214254988,1.4123880841,-0.3856418765,-1.0853938632,-1.6895130046,0.7882812794,0.3603127225,-0.4332517475,-2.5960850321,-1.6033999301,-2.6523541645,0.2218154325,2.1636461692,-3.3751151137,0.9414711307,-2.1135645402,0.267172571,6.2093623711,1.3072882941,3.1420727815,0.2103779274,0.0491737712,-0.6796431982,-5.262293453,-0.2646345509,2.4030368779,0.7272502902,-0.6123706579,-3.7476862057,-1.0028818577,0.0972589802,-3.9485347202,3.187451351,1.7176836343,-1.1036672055,-0.5275619353,-2.7137772851,3.2401969915,-1.0187055877,-1.8841399999,1.6850399176,1.1995912355,-1.9512265513,1.1049707923,-0.6646613997,2.0477127962,-0.2322115817,2.2748265287,-3.4231777652,-1.9517526728,0.5444274902,4.3523735033,1.0770679273,-0.2345317377,-3.100810752,6.0879995806,2.2304473307,-2.4854387032,-0.403958184,-1.5768563702,-1.2003548665,5.5849830428,0.749940679,-0.5831431496,-0.3516815021,0.9276020579,1.1697636312,-4.1269434846,2.7993251423,-1.9921617832,-1.91122129,-2.9440145586,-0.7392835414,1.6780276816,-0.4323378507,-2.7678905006,-0.1841750883,1.053936003,3.1437041151,2.0979012334,-0.2478412059,0.0245620055,-0.4368644707,5.3177656143,-3.2003283808,0.390206851,-1.7180755865,2.0861773686,0.7980942476,-3.4274109789,0.7610940808,2.3966221287,-3.1071222515,-0.9342627893,0.4661741345,5.026865956,-1.2034375827,-1.515990321,1.7620726102,3.310623941,-0.1373828084,-0.9957985147,-3.954756912,-2.7476814481,-0.0219337881,1.6984012855,1.1347864533,-0.2756372108,-1.150642748,-2.1800345393,-0.1965667445,2.8859993413,0.6361165237,2.713779335,-3.3102661441,1.7224683476,0.2850994569,-2.796151012,0.3529156575,-1.7824142529,-1.4928273204,0.3178212493,3.3445061173,0.0879233124,-2.4619778775,-2.8783039803,2.1841300626,-0.2766736148,2.6871470345,-2.5248063208,0.7654603596,-2.7524646481,2.5982448412,-1.9287781515,-2.8423141184,2.4250676292,-0.9552453322,-0.4865184803,1.3578107687,-2.2663324239,1.5673738184,-1.6898671778,1.7031465477,-0.1252900369,-0.0636583153,0.8376788772,1.7823276407,-0.9639609464,1.3227930181,1.5908193125,-1.3306027888,0.902308964,-3.429795107,2.1985106508
biasActivation=0,1,1,1
[BASIC:ACTIVATION]
"org.encog.engine.network.activation.ActivationSigmoid"
"org.encog.engine.network.activation.ActivationSigmoid"
"org.encog.engine.network.activation.ActivationSigmoid"
"org.encog.engine.network.activation.ActivationLinear"
