encog,BasicNetwork,java,3.3.0,1,1447026258881
[BASIC]
[BASIC:PARAMS]
erro=0.03
constante_aprendizagem=0.0255
momentum=0.4
[BASIC:NETWORK]
beginTraining=0
connectionLimit=0
contextTargetOffset=0,0,0,0
contextTargetSize=0,0,0,0
endTraining=3
hasContext=f
inputCount=18
layerCounts=9,10,19,19
layerFeedCounts=9,9,18,18
layerContextCount=0,0,0,0
layerIndex=0,9,19,38
output=0.0028485663,0.0074733232,0.0000001716,0.0339859257,0.0003173724,0.4007950784,0.7808264475,0.0025532749,0.0070393842,0.0156489422,0.0291206321,0.0030810822,0.9997044239,0.9704320096,0.3846818939,0.0309375548,0.6838049816,0.9826235298,1,0.0017620714,0.5962953269,0.7728694769,0.9916349066,0.925643987,0.9975701908,0.8561206045,0.9998777406,0.0027501744,0.0002552288,0.8800786707,0.000118993,0.002155344,0.9987299689,0.5458821474,0.7527124167,0.0071839157,0.2160252322,1,0.7777,0.7777,0,0,0,0,0.7777,0,0,0,0,-0.7777,-0.9999,-0.9999,0,0,-0.7777,0,1
outputCount=9
weightIndex=0,90,261,603
weights=-3.6925975022,1.8294998343,-5.1282033113,0.6006762579,-6.1801413006,-1.1084995907,3.3702756032,1.9240762668,-0.5047606648,-1.09005058,-1.7449554988,4.9449387475,-4.1378193364,2.7942450177,0.7357015756,-3.2659039222,-2.9628833726,-7.1632469657,-1.0272873927,-1.228981624,-0.5851071989,3.6129535109,5.2996434817,-5.2043983918,-2.4540168149,-2.9743936794,-0.8508678754,1.8000582574,-6.279695953,-1.9634010307,-2.5933972461,0.1485691809,2.8358862175,-0.6986208504,-2.5281062052,2.8470301556,-3.7021121923,-1.1184277144,2.0613991308,-2.54996463,-2.1255513395,-5.2392596565,2.3817311663,-0.7490431086,-0.333247512,2.5183725874,7.7920866235,-1.9833539529,-2.7824130002,-3.9700022139,-4.8592730925,-2.3533010842,-4.4539911713,0.3245056555,2.1206226115,3.73162764,-4.7147293428,2.6096201526,-3.3377214058,-2.3998087736,-2.262172784,-5.2867275791,-2.5451508681,0.0247551469,1.7786722042,-7.1797278703,-1.5838461227,4.794833245,0.7404267322,-1.4459740238,5.087514285,-0.652543429,-7.3290913406,-5.3084883263,0.1603051156,3.986666806,-2.0647342468,-0.73649266,0.1911684965,-1.8997638052,1.9148575637,-5.3789007129,3.4099283159,1.0635674463,-0.5118030276,-0.5270222208,-5.0265450974,-5.6335034511,0.3492189005,-1.3304999353,0.1160043687,-1.5712733347,0.4251637131,-0.3108449316,-1.4620109054,-2.9715302856,-2.7607101203,3.5657365632,3.1926101359,-2.507442093,2.1467911848,3.4051181756,-1.1553754585,-3.1264598996,2.0772458715,1.4849341503,2.1443374889,-3.6904219261,0.6148533609,1.9127487107,0.3971163085,-2.7137069696,0.5638079988,5.2456506347,-1.5873106996,4.6171711888,-0.3573309077,3.0010495714,-1.7617392025,-2.7269806874,3.3138254792,-4.0976062865,-2.731661702,-4.805458572,-3.3901723704,3.8400766304,-1.28728422,0.7995077494,-2.3425644101,2.7254462344,-1.9318053065,-4.6352470073,-3.2126600428,2.3642540628,-3.6834886066,6.8970989015,-4.8870449064,-1.534627741,-1.4135550206,3.7020711994,7.624002468,-3.4222207395,3.6897265605,-4.146830226,-1.5094191849,4.38814808,0.6065839214,1.6096732355,2.1459265128,-2.5593302281,1.647393402,-0.3385395714,2.7737765176,0.0365752186,-1.8547196996,-1.0558780364,1.7108706921,3.0401780183,-3.9633952475,1.173455126,4.7969905421,-0.2172856251,-0.8976494243,-2.3892087838,1.0018159239,-0.6076652006,3.4687738421,-0.7418694439,0.571490219,2.8651730474,-2.4611915801,2.8591266697,-2.5865008324,1.256432376,-1.5071545216,2.5001871489,1.7474566894,-1.0182700707,-2.8683883874,-2.0016903028,1.111780244,2.5667447663,-0.3202431348,0.0465508849,-0.3907591863,-4.4769526088,-3.4467024553,-0.5763325517,4.3626517914,2.1829759119,-1.6510868639,0.6818527904,-1.0754169404,-4.8973630083,-6.1187965819,-5.4720914258,1.4965291485,-0.9202563767,1.3754510491,-0.5775446715,1.2854234567,0.4817890387,1.0742909815,0.3389265537,-4.2161199915,5.7576234785,0.6181452871,-7.3610853841,1.9674463219,-1.3415088457,-0.3866052083,-1.2738829115,-0.0790043607,-3.496500423,-3.0579200624,-2.0303954467,4.2063213167,0.9757971211,2.9337566172,2.9582688754,4.4717899827,0.4322970249,-1.9527357014,-1.1745529456,2.2085315951,6.1457169255,-4.6328997153,0.6210630969,-1.4563684826,4.9655593794,-4.5917247377,-2.1176074923,-0.1288934456,-2.1552202621,3.9251992887,1.1452198028,0.7652455425,-3.153445618,2.4558719437,-0.478957916,2.2341345335,0.4877713149,-0.9573731255,-3.4259949821,0.88921669,2.547943297,2.157873209,-1.4147017876,0.9120129568,-0.2432223746,2.0145020004,0.4841029969,2.5757452277,-2.7104992925,-0.4422000503,1.4407985616,0.909170552,-1.758607472,-0.6058217872,-1.804553911,-0.8670921005,5.1600088385,-4.5988946949,1.0534673348,1.3916077659,2.558204167,-1.9108182713,-3.4788356964,-1.610610394,-0.9602780053,-2.4663632037,2.8850713913,1.9140988257,-1.3788391301,0.0537653916,-0.4330767145,1.0276152712,1.857429799,-0.4068912578,-2.2034749004,1.2224892312,-1.0830810379,-2.4143487782,-0.4765373713,-4.7987505483,1.0861664263,-3.6196696345,2.0658660895,1.778274222,0.8356259386,2.791289549,0.7435372724,-2.0226591574,2.845454491,2.2220177429,-0.133383499,-1.3718060061,5.255651549,2.9853489411,0.5483240459,2.4123576296,1.4033732811,0.4131325599,-0.8847181989,2.0668693937,-1.2610204952,-3.2210118139,0.7008559088,0.3913682985,-0.1866498899,-3.7684152013,-1.3730065283,2.6620295288,-1.923232193,4.3165706575,0.6493999005,-4.1244393639,-1.4877216765,1.3522460773,0.4040174842,-0.5554680777,1.7406440004,-1.0959200171,-0.009004906,-1.5451283961,-0.5249118954,-0.3027662531,-1.403696277,1.4389342206,-3.8188588459,0.0972542848,-4.6035057974,1.1058413529,-4.844229552,3.26273657,-1.9177836412,0.1170764393,-0.2319623461,0.2205374397,-2.8928542193,-0.5701709751,0.4645487396,0.1800119325,0.428247306,3.3242578927,1.4883834168,2.7407681596,0.5370575368,-3.4043751624,0.7825163115,2.9957189084,-5.5177593002,1.789402674,-2.0082218036,-3.4318232044,1.0459760221,3.8129993008,-1.6349505829,2.269822339,0.3706503549,-1.3605790015,-2.705363853,1.9324974766,2.1303884921,-4.0002749353,0.3710173508,3.088862693,-1.3417349855,-0.0271139407,2.0757541353,0.4486397034,3.1545049051,-5.1060569048,0.5022069795,0.0853477143,-3.5062546555,0.3843770652,-2.7932516041,0.3135935174,0.7894178544,1.4295089181,-2.8451901215,-0.9236501201,8.4405208347,5.4641607741,0.0870609023,-0.4865981848,-0.502083509,-5.8813975511,1.2123910014,0.1953441248,0.2639603348,-1.6228309601,-0.921091101,3.3570848489,2.1483282417,4.5338728575,-1.5275066282,-0.8432238601,3.134986738,2.9381363982,2.3308833222,2.6619877775,1.0438538543,-1.112006791,-0.2682930417,-0.5602137616,-2.2488016953,-4.2124911296,0.3132759498,-0.2235098629,1.3931616412,-0.212540514,0.4249117017,-1.7401462701,0.6301756014,-2.2086962756,-0.7248052118,-0.9053842619,-5.945015945,0.2319992319,-3.2686475352,2.8786668877,1.8751349967,3.8727199697,0.5903029562,-1.9785613564,-1.0385662276,1.885417421,-0.1444085528,-3.0480069466,1.2737912885,-1.7786029574,-4.7065100206,-4.1305462259,0.3377285855,3.270400848,-0.0595204636,-4.2021384415,3.6675646537,0.7391432922,-1.0447129309,-0.9701453027,2.3262215873,1.1183239051,-2.0169147687,0.8037316062,4.030270631,-0.4294403559,-0.4084823176,0.8281978963,-0.4400299303,-1.3579132619,-2.2033679954,0.8720089778,0.3206461692,-0.7493550396,-3.0763573469,-0.6544103423,-2.2121060768,0.1408957124,2.9450153261,-4.1075649774,0.3645478127,-3.4271264561,0.6876214858,6.2869219314,0.7386845492,3.9444663427,0.5905036745,0.5133220201,-0.9966736195,-5.948138647,0.0360723142,2.9672871772,0.2517418899,-0.4133086072,-3.4824254114,-1.3276194056,0.3655807392,-4.6514542184,3.1615918055,2.7448411755,-1.4117923659,-0.2104053493,-2.6099239949,3.9937108097,-1.0600784604,-1.2349141365,0.7520939099,2.8573091465,-1.1675200789,-0.7523168375,-1.0268819073,1.9215682072,-0.5112142719,4.0193443658,-4.1588928027,-2.3656013309,2.6574204268,5.1664690414,3.2375732998,-0.8410608049,-3.8119587487,4.5638421094,1.9774412152,-2.4831545314,-0.66358067,-1.5451482671,-1.2025054907,5.841395228,0.4187063389,-0.3194044626,-0.4789707267,0.9676736699,-0.7703356262,-4.1786576431,3.0449131649,-1.931619362,-2.3362596448,-3.9055285111,0.5086601207,1.7179132792,-0.7065988605,-2.96758616,-0.2478753659,0.043983165,3.2641727512,2.8821179701,-1.0947877047,-0.4556359073,-0.116559542,6.5756778189,-2.4667549889,-0.2009821652,-1.6235398232,2.7789294671,0.3934713979,-3.7286433907,0.5192226267,3.5183403613,-2.5225424377,-0.5940692935,-0.0719844067,6.0074428147,-1.1991588017,-2.2041194931,2.2336120279,2.9461010506,1.0332709921,-2.1426258469,-4.6923803234,-2.5993787192,-0.4035164863,2.5024508055,1.6100408908,-2.1080912355,-0.8342153066,-2.8637966009,0.1055024147,3.5878102813,0.8539450487,3.2270814552,-3.5587947077,2.1747960153,0.3337432219,-3.2633997308,0.1638688412,-1.2722938647,-2.4152432818,0.0379508632,3.9161422726,0.0929610887,-2.9245300188,-2.4696813197,2.0885719834,0.8282877044,1.9652491387,-2.2277967047,0.8631779383,-3.2337103121,3.5492707819,-3.1641883188,-2.82943734,3.3723642312,-1.2504123044,0.3628877499,0.3876378182,-2.3771676306,1.7169383249,-1.9655883951,1.9095778812,0.1748141959,-1.1076536936,1.2202724516,2.2488047629,-0.7332543147,1.3078793058,1.6487905062,-1.5288104042,2.3228761548,-3.7101084841,2.5136476605
biasActivation=0,1,1,1
[BASIC:ACTIVATION]
"org.encog.engine.network.activation.ActivationSigmoid"
"org.encog.engine.network.activation.ActivationSigmoid"
"org.encog.engine.network.activation.ActivationSigmoid"
"org.encog.engine.network.activation.ActivationLinear"
