encog,BasicNetwork,java,3.3.0,1,1447203774042
[BASIC]
[BASIC:PARAMS]
erro=0.03
constante_aprendizagem=0.0255
momentum=0.4
[BASIC:NETWORK]
beginTraining=0
connectionLimit=0
contextTargetOffset=0,0,0,0
contextTargetSize=0,0,0,0
endTraining=3
hasContext=f
inputCount=18
layerCounts=9,10,19,19
layerFeedCounts=9,9,18,18
layerContextCount=0,0,0,0
layerIndex=0,9,19,38
output=0.0000091518,0.1821145877,0.6569328076,0.011482176,0.0001591548,0.0000006709,0.0000704351,0.0003437169,0.0216726931,0.7366282516,0.9990544949,0.9998355542,0.2803719894,0.8356920405,0.0025876963,0.1796280692,0.0193776258,0.2968504129,1,0.9849345683,0.0003845966,0.1353135826,0.0079743667,0.9971315359,0.1962469527,0.0000013706,0.9998592923,0.0000404918,0.069493641,0.005532603,0.1911769691,0.4863849924,0.0729815292,0.0056752757,0.0022499921,0.6300381192,0.2468467447,1,0,0,0,0,0.9999,0,0.9999,0,0,-0.9999,0,0,-0.9999,0,-0.9999,0,0,0,1
outputCount=9
weightIndex=0,90,261,603
weights=-3.433911147,1.7735754651,-5.0531012916,1.1221171611,-6.4092214162,-1.0896306172,3.5796696362,1.7947538513,0.2831478236,-1.364154553,-2.0222284696,5.1594508784,-4.1487233002,2.9794970757,1.0051683748,-4.2754249824,-2.9725342476,-7.2103212408,-1.3880999035,-1.5454745198,-0.7545308075,3.471307112,5.6539956493,-5.271008241,-2.4244230682,-3.5750934154,-1.0689515666,2.3301065624,-6.7549326303,-2.2851834044,-3.5641151227,0.5126673831,3.2587932689,-1.2373636544,-1.9733284912,3.0138421395,-4.4304034914,-1.0821117973,3.2954916308,-3.5797732901,-2.193691202,-5.1880501831,2.0286142232,-1.0247444941,0.3906878775,2.5001402883,8.2171720735,-3.045030082,-3.5555886507,-4.5191608655,-5.0564684586,-2.5017923414,-4.6607474692,0.4112036741,2.1695861786,4.3249162934,-5.6905647448,2.0318774377,-3.6452297402,-3.1374790062,-2.2883099412,-5.2419018491,-2.2610791326,-0.8215898601,1.8524032647,-7.9409426526,-2.0431225963,5.1157694415,1.3013121453,-1.845981354,5.2478743016,-0.8429421968,-7.183904093,-5.2003492508,0.373294488,3.4706037279,-2.4517961892,-0.5406608967,0.255691056,-2.317876458,2.0698143748,-6.0793432833,3.1646910021,1.7869704575,-0.9020239395,-0.8784478537,-5.1970430151,-5.6882088547,0.3633857696,-1.3920109678,-1.7284159641,-1.7128569452,-0.2431550428,-0.7040646073,-2.4106471678,-3.7433362411,-3.0123248526,4.461818841,4.0784366399,-3.1733443744,2.5084348323,3.9209674246,-1.323782647,-3.1196294507,2.8002669781,1.4566009764,2.2188786184,-5.0155889706,1.1248717919,2.6283440195,1.5870481958,-2.6487522658,1.9948362858,6.3396513355,-2.250860102,4.8994789513,-1.0987578228,2.7186560248,-1.8839267706,-3.174211721,3.2052488862,-4.9089828014,-3.1206607983,-5.7106253367,-3.5524726717,3.8795852703,-0.8669244155,0.5422781833,-2.6554947206,2.7232553303,-2.935452744,-5.1603043798,-2.0597117056,2.1940232813,-4.9689114516,7.6906152348,-5.7488767044,-3.480059614,-0.9454247339,3.8602875133,8.208673286,-5.3157120634,3.1313377268,-4.3102792207,-1.7515064811,5.8177487589,0.6677873061,2.9912962913,2.2252541755,-2.6170515683,0.9441317173,-0.4571842533,3.2311120264,0.3475570655,-2.367851759,-2.1132746929,1.9773831776,2.6897016944,-3.8910953546,1.9780566297,5.5066267395,0.7333535906,-0.8243974964,-2.0880198486,0.7954772104,-0.8907049134,3.6164269463,-0.4030398918,0.9125887197,3.1088435745,-2.161558899,3.5245435922,-3.9182822045,1.7701450712,-2.2978696784,2.1422531197,2.6187556724,-1.5104868442,-3.2676104548,-3.1011388021,0.5248389357,2.5516525045,-0.7581818332,0.5707090809,-0.4533782346,-5.232662396,-4.4022486643,0.0833222278,6.4887592074,1.2242883601,-2.4533375702,1.0120400875,-1.5307758186,-5.1094855747,-6.8823210647,-5.9451098865,1.7797728359,-1.7330552473,1.2881192434,-0.8004176966,2.4963561875,0.3211635427,1.8528456673,0.3690792836,-4.6322384914,6.9995352762,0.2764305246,-8.2740165334,2.1503009149,-1.8357220454,0.4423512913,-1.8508724254,0.7973652695,-3.4466971575,-4.3306160279,-2.5669282274,5.7104539089,0.4081800811,3.4746231484,4.3202927495,4.7174641159,-0.1986144781,-2.1273918514,-1.8308064655,2.4646434497,6.995670952,-5.2091201031,-0.1453359432,-0.8870322484,5.1611035407,-4.8970606393,-1.0966358058,1.0663172418,-2.0756629855,5.1026841248,0.6981786491,0.9939817338,-2.8162360121,2.4171894951,-0.3530416346,2.602727847,0.5366628015,-0.3427154582,-5.0065705454,0.9569996296,2.5827358833,2.4946407003,-2.658414198,0.9061683656,0.530145032,1.4402009011,0.8433730524,2.4541875251,-2.571262423,0.3586150464,0.5917894017,1.0370314953,-3.2343603976,-0.969817264,-0.4641308299,-2.024923009,5.5948242182,-5.1789202837,2.4214090557,2.1429235441,3.8735468591,-0.3507498247,-3.6914099585,-2.3292678113,-2.2837713118,-3.8146976063,4.3810224864,2.1302518901,-1.7620867116,0.4569123299,-1.6227555999,1.2401752256,3.0959770208,0.2280439265,-2.8484939266,0.9133776086,-0.8492572238,-3.1503568299,1.6206717425,-7.1524310891,1.5361736915,-3.4495537035,2.1535116435,2.0595583218,1.2775157503,4.5418765802,0.2731062339,-3.6715055433,3.9067496289,2.3668417102,-1.5027218926,-1.5542542973,6.9748367843,2.5475538724,0.6974906087,3.493660597,1.5357396163,0.5599227855,-1.001849986,2.7230750947,-2.9169552032,-3.4414040715,1.2791694489,-0.057552801,0.3580243796,-4.1998599962,-1.6812236184,1.9941301661,-2.9984184072,5.1853041581,0.8858745097,-5.4430509273,-2.543141402,1.3272813694,1.3947979399,-0.6694384074,-0.9342611023,-1.284876604,0.4776866389,-2.4079254113,1.3583150649,-0.0225838054,-0.9249350558,1.7121711909,-4.2537779346,0.7494737718,-6.7362090305,1.1507777403,-4.7312571912,3.1638434453,-2.5616497904,0.5883959436,-0.6424903824,-0.4260944956,-1.3936107154,-0.9642417197,1.6227724835,-0.1157707806,1.112511439,3.0634508011,1.6884482007,2.7786303787,0.0168579756,-4.9835899472,1.7699941247,4.0199965853,-7.5561656121,3.241617037,-1.1059472441,-3.8663590232,0.8775228163,4.4776807979,-1.6845370766,1.2561998092,2.0012514187,-2.9415504291,-3.5174518559,1.381018526,2.5591435011,-4.7966985076,0.8064195062,4.4337521043,-2.3028496074,0.101679833,2.8370357741,0.1373692723,2.7892317126,-6.5285453051,0.8096868346,0.986240948,-4.6525765348,-0.0395115812,-2.7773196455,-0.3162984658,-1.2848206623,2.2582020788,-3.4522411802,-1.9634378112,10.4540131376,6.7728832002,-0.8792263705,-2.0956383925,-1.1700018559,-7.7317617421,1.1207635104,0.2835023659,-0.745952143,-1.1283994099,-0.8527782934,4.9273189906,3.4262608601,4.0921687146,-2.773606778,-1.311350752,5.7938083359,3.6132910729,2.0113672586,3.4150051061,0.8474188589,-0.3504215239,0.3116195484,-1.5507015935,-1.4793660053,-6.0893138138,-0.0240178127,-0.175722954,2.4416209675,-1.1571975658,1.7637741143,-3.0179202086,1.160949106,-0.6923890109,-1.8030779495,-0.9092535996,-5.4590831023,-0.5020375764,-6.155555582,3.6386539461,3.5419908101,2.6829753951,0.1197388138,-2.8086282172,-0.8436881528,-0.2083437138,0.2704421365,-3.6462330253,0.3041978379,-2.2171888541,-5.29436906,-4.5167339135,0.8332146377,3.6501438307,0.299519145,-5.9745503045,4.7043852824,1.5036757402,-1.3123794296,-1.2123997652,2.892954082,0.6924404461,-3.2948021386,1.7419586086,4.7453486186,-0.4582496526,-0.1693441433,1.0577918663,-0.2741851711,-2.3636702535,-2.4437721814,0.3922446441,0.2335066338,-0.9360910573,-3.6323632758,-1.4799460393,-1.9067703039,-0.8124148599,3.8516538893,-5.2845363378,1.7324947507,-3.8625881683,1.3329797939,7.2417674292,1.9565235108,3.5755385305,0.0660673728,1.5641416342,-1.3817310065,-7.5337771498,0.3330802026,3.821386194,-1.4927461327,-0.0040846942,-4.3575934274,-1.4872302853,0.6468295037,-5.239127951,3.2036559907,3.1824600752,-1.6648790743,-0.8810846853,-3.1294026729,3.3083454203,-0.977190706,-2.2079657524,0.8863244211,3.442098206,-1.9181758095,0.0915053587,-1.4412595861,1.1182573954,0.1192360105,5.212390941,-5.8756870627,-2.2681286219,3.5244881169,5.9025357667,5.2720116227,-1.4087750296,-5.0720276612,4.5863550421,2.0501692831,-2.9110479221,-1.4645083358,-3.0214856716,-1.2140928038,7.0197929723,-0.9236952218,0.2930234832,-1.9238893928,1.0995002615,-0.4366312503,-4.6461485529,5.4790501806,-1.3123792731,-3.8277313197,-4.1177847512,0.9583581987,3.1035746979,-1.2062187654,-3.7513705643,-0.7460571998,1.054507859,3.3973008007,1.6758135362,-1.5061947298,0.3838469751,-1.2018848385,7.9405627446,-1.0481747104,-0.3067500502,-2.9111653845,3.94908213,-0.5225645697,-3.8852086681,0.5432539854,6.2071969281,-2.0128364567,-1.1818870388,0.1993040953,6.4059033742,-1.3651995425,-1.692271641,2.7052805903,3.3677878515,2.4934021641,-3.8206638826,-6.705993971,-2.6454014189,0.7174779012,3.6660097753,1.3027855656,-3.1202003692,-1.549463512,-3.1227230577,1.4503377772,3.4551502111,1.1949695909,4.6269460733,-4.6840647451,1.6840329206,-0.1123165688,-4.2800246014,-0.5373103886,-0.5677752632,-2.5948102692,-0.0436671285,5.1332868898,-0.0083276451,-2.6241279785,-2.1461731452,2.8356560784,0.8453220936,0.8183741207,-0.7561398414,0.7217121816,-2.9533818251,5.1151713968,-5.0384693607,-2.4771035193,5.3487719389,-1.4260477367,-0.2657221837,-0.5051485482,-2.3300026189,2.7945757717,-2.9110334664,1.8017087357,0.281201251,-1.2194532086,1.5919565624,4.1334333753,-0.7180321729,0.7700066476,1.4151707829,-1.619534876,2.1972092553,-4.1376784125,3.6608423207
biasActivation=0,1,1,1
[BASIC:ACTIVATION]
"org.encog.engine.network.activation.ActivationSigmoid"
"org.encog.engine.network.activation.ActivationSigmoid"
"org.encog.engine.network.activation.ActivationSigmoid"
"org.encog.engine.network.activation.ActivationLinear"
