encog,BasicNetwork,java,3.3.0,1,1447197618958
[BASIC]
[BASIC:PARAMS]
erro=0.03
constante_aprendizagem=0.0255
momentum=0.4
[BASIC:NETWORK]
beginTraining=0
connectionLimit=0
contextTargetOffset=0,0,0,0
contextTargetSize=0,0,0,0
endTraining=3
hasContext=f
inputCount=18
layerCounts=9,10,19,19
layerFeedCounts=9,9,18,18
layerContextCount=0,0,0,0
layerIndex=0,9,19,38
output=0.8882596032,0.0000000114,0.0001291129,0.285607447,0.0000002899,0.0001041463,0.0001542501,0.005879452,0.0000000014,0.0000004744,0.7314045308,0.1283236565,0.0093096361,0.01382729,0.9939907174,0.425765871,0.9999927044,0.9925923411,1,0.0000000045,0.000100789,0.0054668903,0.996422479,0.9491099432,0.0823987579,0.9999876818,1,0.0047350995,0.9043615285,0,0.9999995299,0.9986949411,0.9996345516,0.0000006603,0.9988543241,0.0034336037,0.9999833954,1,0,0,0,0,0,0.7777,0.7777,0.7777,0,0,-0.7777,0,-0.7777,-0.9999,0,0,0,-0.9999,1
outputCount=9
weightIndex=0,90,261,603
weights=-2.3882900588,-0.6980207081,-5.7467581127,4.5617867753,-8.8448387859,0.1575089769,1.5077978842,2.0641731946,2.9928614679,-2.4260283633,-4.5126568957,8.4877256393,-3.3262192443,5.4980408381,2.3242793364,-5.5613771886,-4.2069970797,-6.2002050735,-4.667854777,-6.0175223839,0.9926085319,3.7142813527,4.0766470786,-6.4230390925,-3.315573178,-4.0255802943,0.7868370735,2.9115240657,-8.7927170455,-2.5558832488,-6.7235360195,3.2538434396,4.7951951415,-5.178334227,-1.1555851845,3.8368146699,-3.7269919827,-5.3709335331,4.0621843275,-4.7381306914,-0.3215255127,-7.4275318675,2.6421194237,0.5400781707,1.2366531313,2.4610773517,9.5602547164,-3.3001146765,-4.8479279207,-8.38265794,-6.3213999355,-3.0462441579,-7.5887849653,0.6696846288,3.9979648577,5.0863758076,-8.8437897667,4.5921286902,-4.7459038515,-7.2169503621,-2.0042040068,-3.7799905616,-0.1155321967,-3.4788187257,4.7341082717,-8.9535443928,-0.4282465203,7.0304112761,3.4964169014,-7.4372173072,7.1872506245,-0.3265763703,-6.6768542041,-7.7591912539,0.8810466043,3.326582931,-2.0103234005,-1.3450955289,-0.1744935838,-4.901305531,2.4510428463,-8.5864605794,2.521774403,4.7495876455,-0.1623164213,-2.8002386744,-8.1168174159,-7.2345848016,1.7216526242,-2.7498156761,-2.7689982627,-4.8170862265,-3.9536433252,1.0216463452,-6.5944305786,-4.5701480476,-2.5078459951,3.6263802961,9.1533614967,-4.2109786891,2.6741830476,4.2428525726,-2.1252228506,-2.7709614647,8.1610466316,4.5195122527,7.3873948897,-9.759666883,-0.3374805997,4.3078285319,0.7831119684,-4.7212673262,3.3006685364,8.7338710985,-2.1496193268,6.5136980592,-1.5317713265,5.4596665383,0.6365377875,-5.9400577964,7.2908999301,-9.002899068,-3.9978903951,-10.8427120822,-5.7202198879,3.0828172178,-7.1414094652,2.6302823613,-9.9876690284,9.5755148194,-2.7772714668,-12.6623515524,-1.073331417,1.5051491293,-7.1874288395,10.9472112622,-9.3383035843,-7.7648085389,5.6592485886,13.696140421,9.0769992771,-7.9650958234,5.7223561691,-3.0830639946,-5.4183768679,3.3389822371,-0.0075071798,7.5601611855,-0.4267133704,-4.3300369986,1.5410084564,-6.8647307244,11.1193783827,1.1070513547,-5.8942169288,-0.4169135376,0.745155381,5.1665748451,-7.8113298359,8.0510674071,7.7900939574,7.0844797421,-7.381058042,1.0220268511,5.6652733374,-2.9699862202,4.0489224708,-3.6289025651,1.0946099159,5.8957967653,-1.6819456115,4.0031469149,-7.4724106376,3.4920053489,-3.3905338087,3.9972128008,1.2363196775,-2.2593913897,-7.9990668811,-4.316874489,-2.4366142797,4.5757534417,0.227143833,1.090477773,0.3521455465,-11.6458611435,-7.060708077,6.2443916001,13.3512661942,-0.6097183287,-1.3258792284,-1.7731239148,-2.0136220748,-11.0447673524,-5.4068058058,-12.6536194913,-0.6445953578,-8.5727034304,7.8348226013,-3.7071044941,2.5417344574,2.9222185054,0.4758585064,-0.5574385348,-5.7825460646,12.0817659773,-8.8011089774,-17.0352125508,12.7272648774,-1.7303331412,3.2950416995,-2.9923538729,-1.4128361991,-5.319457846,-8.3030728551,-5.5066530569,9.7555090998,4.17289764,4.4384241362,3.1520562193,5.613939137,-0.0115085858,-2.0525170461,3.352982282,4.2843198293,8.3238920749,-10.9346040744,-1.8014405342,-3.5525868223,8.5192706816,-5.5760175942,-1.0490982521,7.1102946565,-8.274523025,-1.3696939085,-1.2484136001,2.9247486131,-4.3342402282,8.5499575594,-5.1731139961,5.3526096008,1.349807321,3.5272295592,-6.9555238139,2.5087167962,4.144375158,6.0225933942,-3.7787205477,3.6920924592,0.655592282,1.0619483567,0.722995892,6.8309704288,-2.9372437945,0.6151798015,0.9727340052,1.3648093117,-3.1469866903,-7.0216545377,1.902743667,-7.2485833261,6.6451764649,-10.7574170616,10.123440947,5.5931780415,5.2138687121,-2.0163804236,-8.1145842854,0.1472136036,-3.0938460942,-5.624149801,7.6015805082,-1.1749992408,-8.0182447324,4.141387387,1.9634940735,2.1792883099,6.7086790651,2.0544919926,-5.7953458689,4.303976868,1.4797466015,-5.9649206133,8.0820317643,-16.9431874822,2.517233919,-5.3055422469,10.8172629744,1.3253805512,2.8305180114,8.6101671768,-1.2803263859,-10.533183077,5.5049484846,1.4955433863,-4.0694717232,1.5072071628,13.1940975642,2.1048158608,-2.1135199177,8.9813172679,1.9671354034,6.8843341985,4.5959055992,6.226157022,-11.4339213084,-7.147696227,-3.9645916143,5.2459001424,0.0756784453,-8.958534727,-3.6187173363,1.5985259664,-0.9909191344,10.6461102559,-4.0221649267,-10.7501751974,-7.5669772508,-0.7600025658,1.0598676428,-0.289661445,3.0216436765,0.7084664056,-0.278279227,-7.2055350481,-2.4757575569,-4.4185688602,-3.4106184697,6.5888029314,-13.9293297042,4.569351887,-20.6469400735,5.3377975603,-8.405609102,4.280914116,3.3155820551,4.0916015855,-2.1621092056,-0.398297111,-0.1358547278,-6.17568141,-3.3510747959,2.890385531,2.9130216249,2.6270751246,-0.0399317222,2.4048085647,4.4715015204,-8.7030243223,7.9642567907,9.9745972099,-8.9160704095,4.4684505236,-2.1785954337,-11.7050426929,4.4356497796,10.0250935733,-5.3487268236,4.5318332498,4.0857976046,-6.7092866559,-5.1917714631,4.1942134229,6.6708380668,-6.3499785719,-5.2535890738,7.4270348555,-7.2449268501,-5.1216073617,0.5184814105,3.1608618481,5.5545253194,-11.2930724818,-1.5660306079,-6.249534115,-12.0860991609,0.6434185501,-6.022127073,-0.1600689669,1.0998390768,3.8926674422,-0.1158360068,-2.4818026174,11.5621997244,21.9772157393,-1.1231040025,-0.6006575383,-0.0561066835,-15.6109408199,1.2114420637,0.4852916394,2.0878905952,3.7178190877,-2.4310223473,6.193548118,4.9312472864,7.6710152213,-8.4119870192,1.1308401775,13.4566326459,4.453286599,3.0818256151,-0.5967488527,-0.5577455572,3.5738541895,3.5229648266,-3.2262973689,-10.9822095722,-6.7302622023,-3.5201207622,-1.1711203554,-0.333490415,-3.1007065188,3.6041688498,-0.2139111645,-0.314745266,-0.0349740483,-1.6814070515,-1.1162937691,-7.5809304311,-6.7450216494,-14.2121972871,18.9534553457,6.4000276225,4.1684139183,-2.0187774826,-5.8584981786,-1.5926489387,-2.5094854244,-1.6675360752,-6.8300390104,-2.6270276725,-7.0487070058,-11.7045303838,-4.2849291505,2.2532419102,8.1703243179,-0.369504605,-8.6634568641,2.5719606944,3.8849874173,0.5910214233,2.0066664931,2.5863325924,2.1094361879,-4.780792384,4.8201029232,9.0590463036,-2.7949896702,-1.5802894144,4.0426499395,-8.7204823327,-5.9568068999,1.3831260873,-3.7521922877,3.49875767,-1.5993562682,-10.8411906491,-5.9203986121,-9.9838699149,-4.6044203731,5.7374082694,-15.7230585066,8.1917642911,-11.4329244087,1.2100742543,13.9528906049,-0.5530188706,14.2891212654,-0.213153928,1.1651198571,-0.749338519,-13.8254075255,-2.9922222133,14.2636948683,14.199664895,-0.2505458017,-7.4736886959,-2.8047603073,-0.5514877611,-5.9035643332,19.257806576,8.2611250729,-10.4224446282,-1.9372188855,-2.7768624595,7.8757282249,-4.8403874769,-3.7906493413,-3.7035254514,1.7457821255,-3.6288260877,4.3368418552,-9.1847232614,7.6162524386,0.7378963024,6.2426261344,-9.0133248441,-5.641196321,7.4049921684,7.5110070804,8.1349584047,-2.3978912914,-3.2095284252,5.0732186521,4.0171992906,-6.5546901789,-1.5092556713,-7.3879586396,-4.0003746626,15.2355017317,6.4392522164,2.4236079043,-6.7379926547,7.8513934503,-0.2645481573,-4.838707144,11.4844181537,-3.5496959269,-3.471695724,-9.0404981064,7.5632966405,7.1260211745,-2.5605936876,-2.0080625788,-4.6266411593,0.262854256,3.0121681755,2.8107389804,-0.3212448177,-3.1677749671,-3.2476253868,13.8287002544,-3.2609012794,-1.4424772064,-5.5058914151,5.2831723107,-3.7918871639,-7.1883808,-4.4677834153,14.0106975347,-6.9518169939,-0.3410890792,-3.2486538585,11.6699981106,-2.0410425363,2.3613403261,11.0256377737,2.6811199843,12.2853227577,-6.5283961049,-4.7414286462,-7.7561258881,-5.3024068081,5.658301608,-3.322405981,-2.6889076929,-3.6308786114,-9.5553051761,-2.32370566,9.8059301821,6.8389404422,15.5999442052,-8.8100362394,0.25405634,2.417939258,-4.5320185382,-1.8675314313,6.0721748758,-5.0399313227,0.4584932792,7.6401775703,2.6833069236,6.5518339382,-1.3937635064,10.571006413,-2.5068508661,1.0278793734,7.1514735557,-1.4799153757,-8.4299817612,17.6467472576,-9.8533310604,-7.629122428,3.3755011503,0.7273589904,1.5318939154,-1.6687837591,-11.5086484998,2.2412298107,-10.2798198309,2.3649738079,-2.5466503064,-5.4486467275,0.2714881066,7.1437071924,2.1994850462,0.0589935132,8.4599860324,-8.8983979072,1.4005227769,-10.1481858372,7.1926455722
biasActivation=0,1,1,1
[BASIC:ACTIVATION]
"org.encog.engine.network.activation.ActivationSigmoid"
"org.encog.engine.network.activation.ActivationSigmoid"
"org.encog.engine.network.activation.ActivationSigmoid"
"org.encog.engine.network.activation.ActivationLinear"
